tree
version=v4
num_class=1
num_tree_per_iteration=1
label_index=0
max_feature_idx=14
objective=regression
feature_names=Scr NEU_percentage cystatin_C BUN LDH Dopamine_and_epinephrine_drugs Age HDL-C TBIL CRP ADA RBC PCT MODS Glucose
feature_infos=[12.6:2532.3000000000002] [3:98.900000000000006] [-0.97769734900000005:9.5700000000000003] [-10.40832486:57.522349689999999] [53:3267] [0:1] [20:98] [0.22:13.32] [2:682.74000000000001] [-83.892557850000003:322] [0:107] [0:8.0999999999999996] [-11.049888360000001:100] [0:1] [1.49:38.899999999999999]
tree_sizes=3158 3321 3314 3315 3316 3319 3311 3319 3325 3308 3319 3319 3316 3320 3312 3314 3320 3321 3316 3320 3310 3318 3317 3317 3310 3322 3329 3316 3327 3325 3330 3327 3316 3319 3328 3308 3315 3312 3327 3315 3326 3321 3318 3328 3326 3312 3342 3331 3319 3314 3340 3332 3315 3314 3324 3317 3313 3304 3340 3325 3329 3343 3327 3313 3313 3317 3338 3337 3324 3322 3335 3316 3324 3319 3331 3312 3322 3318 3322 3340 3315 3333 3331 3345 3322 3325 3306 3342 3327 3341 3319 3336 3332 3329 3341 3326 3329 3341 3319 3333 3328 3311 3324 3330 3318 3339 3319 3338 3332 3335 3327 3328 3323 3335 3338 3322 3342 3324 3341 3316 3336 3315 3352 3334 3328 3334 3314 3335 3324 3337 3328 3339 3316 3343 3332 3353 3315 3348 3332 3323 3354 3337 3347 3338 3331 3328 3318 3326 3342 3333 3326 3327 3328 3320 3331 3334 3330 3323 3324 3335 3332 3338 3326 3336 3327 3336 3333 3342 3329 3342 3343 3346 3330 3349 3334 3338 3353 3357 3341 3350 3358 3340 3339 3350 3351 3336 3325 3351 3354 3351 3348 3357 3344 3342 3341 3365 3351 3351 3350 3358 3343 3357 3351 3343 3357 3347 3356 3355 3340 3350 3330 3349 3357 3354 3360 3348 3363 3336 3359 3358 3357 3350 3369 3356 3362 3349 3356 3366 3363 3351 3348 3381 3341 3363 3358 3355 3357 3382 3343 3355 3368 3346 3353 3376 3344 3352 3368 3363 3350 3339

Tree=0
num_leaves=30
num_cat=0
split_feature=1 3 2 0 0 0 4 2 11 8 0 8 6 8 11 6 8 3 9 9 14 14 5 9 2 1 3 11 3
split_gain=50.6783 23.3613 18.3312 16.7256 11.0593 12.1081 7.98918 7.30392 7.57936 6.42257 9.60898 6.07005 5.81989 6.43023 5.64668 5.43723 4.98277 4.19288 4.32275 4.1764 4.70909 3.68873 3.67684 3.50614 4.22355 3.48667 3.62926 3.33536 3.23933
threshold=76.705000000000013 8.1705770120000007 1.5490277350000003 50.95000000000001 54.065000000000005 219.10000000000002 316.50000000000006 0.73743420900000012 5.2750000000000012 18.210000000000004 213.00000000000003 22.350000000000005 76.500000000000014 44.300000000000004 4.6150000000000011 74.500000000000014 18.050000000000004 4.233765087500001 56.743843215000005 43.292497850000011 7.2600000000000007 4.2550000000000008 1.0000000180025095e-35 45.768851910000002 0.87695965000000009 91.705000000000013 11.051452765000002 3.9850000000000008 15.949369980000002
decision_type=2 2 2 2 2 2 2 2 2 2 2 2 2 2 2 2 2 2 2 2 2 2 2 2 2 2 2 2 2
left_child=1 3 4 16 -2 6 11 -5 12 10 28 14 13 19 25 -16 23 -14 27 21 -21 22 -9 24 -1 26 -6 -19 -3
right_child=2 9 -4 7 5 -7 -8 8 -10 -11 -12 -13 17 -15 15 -17 -18 18 -20 20 -22 -23 -24 -25 -26 -27 -28 -29 -30
leaf_value=0.49759138617219095 0.50268180750815339 0.49920356853022019 0.50343238865485129 0.49545856735085975 0.49531910903927329 0.50442427879784868 0.50195999766932664 0.49499999106547365 0.50129853723899265 0.50252442684674359 0.50301171642241804 0.50101760491697733 0.50168295887818171 0.50149341654650958 0.49745657253166381 0.50258921168471959 0.50345118732527405 0.49499999106547365 0.50258921168471959 0.49675886344478037 0.50224012440151111 0.49564312946068645 0.50057367378019302 0.49499999106547365 0.50270531059372481 0.49956366118375067 0.50111501445475004 0.49852688079208235 0.49499999106547365
leaf_weight=28.154998302459717 189.95695972442627 190.92498707771301 380.70689368247986 159.10269927978516 114.3162260055542 50.321544170379639 83.862822532653809 18.541267395019531 57.918702840805054 135.75106191635132 72.853945016860962 72.747165203094482 43.669655084609985 28.090229511260986 44.550155878067017 38.454923629760742 56.115690231323242 37.661949396133423 19.227461814880371 41.481534242630005 25.193156480789185 283.6120707988739 32.725546360015869 13.905950546264647 37.875509023666382 31.974583148956299 11.931389331817625 93.091445207595825 20.279511213302612
leaf_count=38 116 213 191 264 192 18 60 32 47 86 41 62 33 22 61 24 28 65 12 61 17 463 30 24 23 34 10 113 35
internal_value=0.5 0.498763 0.501696 0.497914 0.50066 0.499803 0.499218 0.497388 0.497838 0.500735 0.49988 0.498486 0.497517 0.496868 0.497722 0.499834 0.501167 0.498956 0.498162 0.496544 0.49883 0.496089 0.498558 0.499564 0.500525 0.496614 0.495867 0.497511 0.4988
internal_weight=0 1396.18 1018.82 976.368 638.116 448.159 397.837 840.316 681.213 419.81 284.058 313.974 623.294 429.644 241.227 83.0051 136.052 193.651 149.981 401.554 66.6747 334.879 51.2668 79.9365 66.0305 158.222 126.248 130.753 211.204
internal_count=2415 1647 768 1272 577 461 443 1159 895 375 289 383 848 625 321 85 113 223 190 603 78 525 62 85 61 236 202 178 248
is_linear=0
shrinkage=1


Tree=1
num_leaves=30
num_cat=0
split_feature=1 3 2 0 0 0 4 2 11 8 0 8 6 8 11 6 8 3 9 9 14 14 5 9 2 1 3 11 2
split_gain=49.6698 22.8964 17.9664 16.3928 10.8392 11.8671 7.8302 7.15858 7.42853 6.29476 9.41777 5.94926 5.70407 6.30227 5.53431 5.32903 4.88361 4.10944 4.23673 4.09329 4.61538 3.61533 3.60367 3.43637 4.1395 3.41729 3.55704 3.26899 3.23655
threshold=76.705000000000013 8.1705770120000007 1.5490277350000003 50.95000000000001 54.065000000000005 219.10000000000002 316.50000000000006 0.73743420900000012 5.2750000000000012 18.210000000000004 213.00000000000003 22.350000000000005 76.500000000000014 44.300000000000004 4.6150000000000011 74.500000000000014 18.050000000000004 4.233765087500001 56.743843215000005 43.292497850000011 7.2600000000000007 4.2550000000000008 1.0000000180025095e-35 45.768851910000002 0.87695965000000009 91.705000000000013 11.051452765000002 3.9850000000000008 0.75045310650000008
decision_type=2 2 2 2 2 2 2 2 2 2 2 2 2 2 2 2 2 2 2 2 2 2 2 2 2 2 2 2 2
left_child=1 3 4 16 -2 6 11 -5 12 10 -3 14 13 19 25 28 23 -14 27 21 -21 22 -9 24 -1 26 -6 -19 -16
right_child=2 9 -4 7 5 -7 -8 8 -10 -11 -12 -13 17 -15 15 -17 -18 18 -20 20 -22 -23 -24 -25 -26 -27 -28 -29 -30
leaf_value=-0.0023845187300309081 0.0026549983098819296 -0.0011880426159211598 0.0033980736604841393 -0.0044960094846606463 -0.0046340728939317389 0.0043800451260593391 0.0019404065895562894 -0.0049499998148331793 0.0012855607659149396 0.0024991913238754473 0.0029816083517619392 0.0010074375779614069 0.0016661381779847131 0.0014784913611783476 0.00043935885048110394 0.0025633283907337046 0.0034166844584404845 -0.0049499998148331793 0.0025633283907337046 -0.0032087162361444082 0.0022177321791736339 -0.0043132928968142087 0.00056794592035648323 -0.0049499998148331793 0.0026782662996062373 -0.0004319663920192988 0.0011038731733678333 -0.0014583790947201411 -0.0049745657940920267
leaf_weight=28.154998302459717 189.95695972442627 211.20449829101562 380.70689368247986 159.10269927978516 114.3162260055542 50.321544170379639 83.862822532653809 18.541267395019531 57.918702840805054 135.75106191635132 72.853945016860962 72.747165203094482 43.669655084609985 28.090229511260986 20.214742422103882 38.454923629760742 56.115690231323242 37.661949396133423 19.227461814880371 41.481534242630005 25.193156480789185 283.6120707988739 32.725546360015869 13.905950546264647 37.875509023666382 31.974583148956299 11.931389331817625 93.091445207595825 24.335413455963135
leaf_count=38 116 248 191 264 192 18 60 32 47 86 41 62 33 22 19 24 28 65 12 61 17 463 30 24 23 34 10 113 42
internal_value=0 -0.00122509 0.00167884 -0.0020648 0.000653122 -0.000195395 -0.000774132 -0.00258618 -0.00214012 0.000727877 -0.000118631 -0.00149919 -0.00245845 -0.0031007 -0.00225511 -0.000163893 0.00115544 -0.00103353 -0.00181959 -0.00342103 -0.00115832 -0.00387153 -0.00142769 -0.000431967 0.000519526 -0.00335219 -0.00409179 -0.0024641 -0.00251798
internal_weight=0 1396.18 1018.82 976.368 638.116 448.159 397.837 840.316 681.213 419.81 284.058 313.974 623.294 429.644 241.227 83.0051 136.052 193.651 149.981 401.554 66.6747 334.879 51.2668 79.9365 66.0305 158.222 126.248 130.753 44.5502
internal_count=2415 1647 768 1272 577 461 443 1159 895 375 289 383 848 625 321 85 113 223 190 603 78 525 62 85 61 236 202 178 61
is_linear=0
shrinkage=0.01


Tree=2
num_leaves=30
num_cat=0
split_feature=1 3 2 0 0 0 4 2 12 8 0 8 8 11 6 8 6 11 1 14 3 9 2 1 3 3 9 8 8
split_gain=48.6814 22.4408 17.6089 16.0666 10.6235 11.631 7.67438 7.04266 6.99673 6.16949 9.23035 5.83087 5.63474 5.42417 5.22298 4.78642 4.60237 4.74958 4.40473 3.96159 3.6217 3.36799 4.05713 3.34928 3.48625 3.17487 3.64246 4.83425 5.41628
threshold=76.705000000000013 8.1705770120000007 1.5490277350000003 50.95000000000001 54.065000000000005 219.10000000000002 316.50000000000006 1.2451106185000003 5.1118559195000008 18.210000000000004 213.00000000000003 22.350000000000005 7.785000000000001 4.6150000000000011 74.500000000000014 18.050000000000004 83.500000000000014 5.2750000000000012 56.370116405000012 5.9450000000000012 4.7966207015000011 45.768851910000002 0.87695965000000009 91.705000000000013 11.051452765000002 15.949369980000002 76.849909450000013 12.505000000000001 14.705000000000002
decision_type=2 2 2 2 2 2 2 2 2 2 2 2 2 2 2 2 2 2 2 2 2 2 2 2 2 2 2 2 2
left_child=1 3 4 15 -2 6 11 8 16 10 25 13 -9 23 -15 21 17 -5 20 -19 -14 22 -1 24 -6 26 27 -3 -29
right_child=2 9 -4 7 5 -7 -8 12 -10 -11 -12 -13 18 14 -16 -17 -18 19 -20 -21 -22 -23 -24 -25 -26 -27 -28 28 -30
leaf_value=-0.0023606735681348176 0.0026284485215148146 -0.0029290549524719641 0.0033640931159195746 -0.0037611583522608439 -0.0045877323164595397 0.0043362446312100412 0.0019210026115081644 -0.004938281004100529 0.0030662567936293956 0.0024741995794164075 0.0029517920330702991 0.00099736341873329112 0.00060748651406335283 -0.0024928045604867342 0.0025376951961056382 0.003382517306091072 -0.0001888025764629399 0.0013171089247320561 0.0008356230466768144 -0.0050016295323179879 -0.0049333533983166407 -0.004900500094435079 0.0026514837550310126 -0.00042764695160778688 0.0010928342597937163 -0.0049381193058630818 0.0024596019726939216 0.0024304129663483961 -0.0034177021540477315
leaf_weight=28.154998302459717 189.95695972442627 88.928763151168823 380.70689368247986 530.18361783027649 114.3162260055542 50.321544170379639 83.862822532653809 29.550144910812378 18.06863260269165 135.75106191635132 72.853945016860962 72.747165203094482 19.635327816009521 44.550155878067017 38.454923629760742 56.115690231323242 45.644216299057007 34.63533878326416 119.14234471321106 13.905950546264647 29.550144910812378 13.905950546264647 37.875509023666382 31.974583148956299 11.931389331817625 20.279511213302612 29.420607328414917 49.227483749389648 23.348132848739624
leaf_count=38 116 127 191 825 192 18 60 51 10 86 41 62 18 61 24 28 47 28 105 24 51 24 23 34 10 35 19 32 35
internal_value=0 -0.00121284 0.00166205 -0.00204416 0.000646591 -0.000193441 -0.000766391 -0.00256032 -0.0030684 0.000720599 -0.000117444 -0.0014842 -0.000910773 -0.00223256 -0.000162255 0.00114388 -0.00324593 -0.00348704 -0.000203739 -0.000493063 -0.0027214 -0.000427647 0.000514331 -0.00331867 -0.00405087 -0.00117616 -0.000776578 -0.0013661 0.000549029
internal_weight=0 1396.18 1018.82 976.368 638.116 448.159 397.837 840.316 642.438 419.81 284.058 313.974 197.878 241.227 83.0051 136.052 624.369 578.725 168.328 48.5413 49.1855 79.9365 66.0305 158.222 126.248 211.204 190.925 161.504 72.5756
internal_count=2415 1647 768 1272 577 461 443 1159 934 375 289 383 225 321 85 113 924 877 174 52 69 85 61 236 202 248 213 194 67
is_linear=0
shrinkage=0.01


Tree=3
num_leaves=30
num_cat=0
split_feature=1 3 2 0 0 0 4 2 11 8 0 8 6 8 11 6 8 3 9 9 14 14 5 9 2 1 3 11 2
split_gain=47.7126 21.9942 17.2585 15.7469 10.4121 11.3995 7.52166 6.9523 7.18162 6.04672 9.04667 5.71484 5.5078 6.11654 5.31623 5.11905 4.69117 4.02549 4.12452 4.00476 4.5125 3.5215 3.50551 3.30096 3.97639 3.28263 3.41688 3.18206 3.17214
threshold=76.705000000000013 8.1705770120000007 1.5490277350000003 50.95000000000001 54.065000000000005 219.10000000000002 316.50000000000006 0.73743420900000012 5.2750000000000012 18.210000000000004 213.00000000000003 22.350000000000005 76.500000000000014 44.300000000000004 4.6150000000000011 74.500000000000014 18.050000000000004 4.233765087500001 56.743843215000005 43.292497850000011 7.2600000000000007 4.2550000000000008 1.0000000180025095e-35 45.768851910000002 0.87695965000000009 91.705000000000013 11.051452765000002 3.9850000000000008 0.75045310650000008
decision_type=2 2 2 2 2 2 2 2 2 2 2 2 2 2 2 2 2 2 2 2 2 2 2 2 2 2 2 2 2
left_child=1 3 4 16 -2 6 11 -5 12 10 -3 14 13 19 25 28 23 -14 27 21 -21 22 -9 24 -1 26 -6 -19 -16
right_child=2 9 -4 7 5 -7 -8 8 -10 -11 -12 -13 17 -15 15 -17 -18 18 -20 20 -22 -23 -24 -25 -26 -27 -28 -29 -30
leaf_value=-0.0023370667824918392 0.002602163707584015 -0.0011644005095560286 0.003330451809110747 -0.0044168272581863429 -0.0045418551684076177 0.0042928820370161536 0.0019017926796371788 -0.0048624904253323029 0.0012731382859511007 0.0024494574348642639 0.0029222742164386989 0.00098738976791336113 0.0016640175966748977 0.0014719863704961175 0.00045989324396404982 0.0025123183073840656 0.0033486923544403971 -0.004874466232899409 0.00253856349901334 -0.0031441080458897409 0.0022215161503806691 -0.0042363960183058099 0.00057978497188820497 -0.0048514951809306159 0.0026249688022072625 -0.00042337040473048915 0.0010819062489047112 -0.0014295816271445835 -0.0048998921300397779
leaf_weight=28.154998302459717 189.95695972442627 211.20449829101562 380.70689368247986 159.10269927978516 114.3162260055542 50.321544170379639 83.862822532653809 18.541267395019531 57.918702840805054 135.75106191635132 72.853945016860962 72.747165203094482 43.669655084609985 28.090229511260986 20.214742422103882 38.454923629760742 56.115690231323242 37.661949396133423 19.227461814880371 41.481534242630005 25.193156480789185 283.6120707988739 32.725546360015869 13.905950546264647 37.875509023666382 31.974583148956299 11.931389331817625 93.091445207595825 24.335413455963135
leaf_count=38 116 248 191 264 192 18 60 32 47 86 41 62 33 22 19 24 28 65 12 61 17 463 30 24 23 34 10 113 42
internal_value=0 -0.00120071 0.00164543 -0.00202371 0.000640125 -0.000191507 -0.000758727 -0.00253471 -0.00209513 0.000713393 -0.00011627 -0.00146935 -0.00240812 -0.00303922 -0.00221024 -0.000160632 0.00113244 -0.00100793 -0.00178592 -0.0033548 -0.0011167 -0.00380041 -0.00138848 -0.00042337 0.000509188 -0.00328548 -0.00401037 -0.00242184 -0.00246788
internal_weight=0 1396.18 1018.82 976.368 638.116 448.159 397.837 840.316 681.213 419.81 284.058 313.974 623.294 429.644 241.227 83.0051 136.052 193.651 149.981 401.554 66.6747 334.879 51.2668 79.9365 66.0305 158.222 126.248 130.753 44.5502
internal_count=2415 1647 768 1272 577 461 443 1159 895 375 289 383 848 625 321 85 113 223 190 603 78 525 62 85 61 236 202 178 61
is_linear=0
shrinkage=0.01


Tree=4
num_leaves=30
num_cat=0
split_feature=1 3 2 0 0 0 4 2 12 8 0 8 8 11 6 8 6 11 1 14 3 9 2 1 3 3 9 8 8
split_gain=46.7631 21.5565 16.915 15.4335 10.2049 11.1727 7.37198 6.82564 6.78295 5.92639 8.86664 5.60111 5.48417 5.21044 5.01718 4.59782 4.44695 4.55511 4.27447 3.88222 3.52877 3.23527 3.89726 3.21731 3.34888 3.11169 3.56998 4.73805 5.30849
threshold=76.705000000000013 8.1705770120000007 1.5490277350000003 50.95000000000001 54.065000000000005 219.10000000000002 316.50000000000006 1.2451106185000003 5.1118559195000008 18.210000000000004 213.00000000000003 22.350000000000005 7.785000000000001 4.6150000000000011 74.500000000000014 18.050000000000004 83.500000000000014 5.2750000000000012 56.370116405000012 5.9450000000000012 4.7966207015000011 45.768851910000002 0.87695965000000009 91.705000000000013 11.051452765000002 15.949369980000002 76.849909450000013 12.505000000000001 14.705000000000002
decision_type=2 2 2 2 2 2 2 2 2 2 2 2 2 2 2 2 2 2 2 2 2 2 2 2 2 2 2 2 2
left_child=1 3 4 15 -2 6 11 8 16 10 25 13 -9 23 -15 21 17 -5 20 -19 -14 22 -1 24 -6 26 27 -3 -29
right_child=2 9 -4 7 5 -7 -8 12 -10 -11 -12 -13 18 14 -16 -17 -18 19 -20 -21 -22 -23 -24 -25 -26 -27 -28 28 -30
leaf_value=-0.0023136962137433742 0.0025761421485765729 -0.0028881206503905865 0.0032971474080505441 -0.0036898087813974846 -0.0044964368327662279 0.0042499530734428836 0.0018827745764351915 -0.0048587699274495414 0.0030306497577407389 0.0024249629231713581 0.0028930512488770511 0.00097751603557699089 0.00061783646698876382 -0.002443197440552596 0.002487195120590255 0.003315205492873864 -0.00017928974948768636 0.0013026289495628657 0.00083596487113654367 -0.0049524905443191301 -0.004851458853540153 -0.004802979930796987 0.0025987193402470287 -0.00041913673274614763 0.0010710869426295816 -0.0048770944939205618 0.0024466499096657784 0.0024177530458016831 -0.003371881101572119
leaf_weight=28.154998302459717 189.95695972442627 88.928763151168823 380.70689368247986 530.18361783027649 114.3162260055542 50.321544170379639 83.862822532653809 29.550144910812378 18.06863260269165 135.75106191635132 72.853945016860962 72.747165203094482 19.635327816009521 44.550155878067017 38.454923629760742 56.115690231323242 45.644216299057007 34.63533878326416 119.14234471321106 13.905950546264647 29.550144910812378 13.905950546264647 37.875509023666382 31.974583148956299 11.931389331817625 20.279511213302612 29.420607328414917 49.227483749389648 23.348132848739624
leaf_count=38 116 127 191 825 192 18 60 51 10 86 41 62 18 61 24 28 47 28 105 24 51 24 23 34 10 35 19 32 35
internal_value=0 -0.0011887 0.00162897 -0.00200348 0.000633723 -0.000189592 -0.00075114 -0.00250937 -0.00300956 0.000706259 -0.000115107 -0.00145466 -0.000885437 -0.00218813 -0.000159026 0.00112112 -0.00318435 -0.00342136 -0.000187914 -0.000489317 -0.00266806 -0.000419137 0.000504096 -0.00325263 -0.00397026 -0.00115276 -0.000757168 -0.00134079 0.000555183
internal_weight=0 1396.18 1018.82 976.368 638.116 448.159 397.837 840.316 642.438 419.81 284.058 313.974 197.878 241.227 83.0051 136.052 624.369 578.725 168.328 48.5413 49.1855 79.9365 66.0305 158.222 126.248 211.204 190.925 161.504 72.5756
internal_count=2415 1647 768 1272 577 461 443 1159 934 375 289 383 225 321 85 113 924 877 174 52 69 85 61 236 202 248 213 194 67
is_linear=0
shrinkage=0.01


Tree=5
num_leaves=30
num_cat=0
split_feature=1 3 2 0 0 0 4 2 11 8 0 6 8 8 1 8 3 9 9 14 9 9 14 5 9 2 11 11 12
split_gain=45.8325 21.1276 16.5784 15.1264 10.0127 11.5219 7.65936 6.75208 6.94317 5.80845 8.6902 5.31823 5.93632 4.99166 5.03919 4.50632 3.94326 4.01532 3.91818 4.41196 3.50797 4.22063 3.43016 3.41005 3.17089 3.81971 3.09746 3.15131 3.7555
threshold=76.705000000000013 8.1705770120000007 1.5490277350000003 50.95000000000001 57.555000000000007 219.10000000000002 316.50000000000006 0.73743420900000012 5.2750000000000012 18.210000000000004 213.00000000000003 76.500000000000014 44.300000000000004 12.290000000000001 94.455000000000027 18.050000000000004 4.233765087500001 56.743843215000005 43.292497850000011 7.2600000000000007 24.884831685000005 54.802139880000006 4.2550000000000008 1.0000000180025095e-35 45.768851910000002 0.87695965000000009 3.9850000000000008 4.1014576240000009 0.13950000000000004
decision_type=2 2 2 2 2 2 2 2 2 2 2 2 2 2 2 2 2 2 2 2 2 2 2 2 2 2 2 2 2
left_child=1 3 4 15 -2 6 13 -5 11 10 -3 12 18 14 -6 24 -13 26 22 -20 -15 -22 23 -9 25 -1 -18 -28 -29
right_child=2 9 -4 7 5 -7 -8 8 -10 -11 -12 16 -14 20 -16 -17 17 -19 19 -21 21 -23 -24 -25 -26 -27 27 28 -30
leaf_value=-0.0022905590250849894 0.0023555535759607967 -0.0011412291245160929 0.0032641759610867642 -0.0043390864656058011 -0.0041028225530229598 0.0042074538080310048 0.0018767938499794244 -0.0047765617368298041 0.0012608137256862916 0.0024007135591837272 0.0028641210482219137 0.001661583880361431 0.001465288180861753 0.00096158748073113705 0.00201626805400585 0.0032820533649206415 -0.0048001827723132117 0.0025139158018357304 -0.0030807769327520955 0.0022247361250414353 -0.0040873595889074597 0.00012767233517091485 -0.0041609172107612662 0.00059110530319306546 -0.00475495022921595 0.0025727318755388779 0.0020111640760087646 0.00062950267097204463 -0.0041158663193518862
leaf_weight=28.154998302459717 219.78543305397034 211.20449829101562 380.70689368247986 159.10269927978516 98.84358024597168 50.321544170379639 78.476542472839355 18.541267395019531 57.918702840805054 135.75106191635132 72.853945016860962 43.669655084609985 28.090229511260986 79.871689081192017 15.579425573348997 56.115690231323242 37.661949396133423 19.227461814880371 41.481534242630005 25.193156480789185 45.365887880325317 49.871667146682739 283.6120707988739 32.725546360015869 13.905950546264647 37.875509023666382 20.965705633163452 26.180437088012695 45.945302486419678
leaf_count=38 141 248 191 264 160 18 56 32 47 86 41 33 22 69 11 28 65 12 61 17 73 49 463 30 24 23 15 24 74
internal_value=0 -0.00117681 0.00161268 -0.00198344 0.000627386 -0.000280571 -0.000894264 -0.00248427 -0.00205107 0.000699196 -0.000113956 -0.00235882 -0.00297896 -0.00164535 -0.00326967 0.00110991 -0.000982935 -0.00175293 -0.00328985 -0.00107608 -0.000583955 -0.00188014 -0.00373062 -0.00135018 -0.000414945 0.000499055 -0.00238038 -0.0014014 -0.00239338
internal_weight=0 1396.18 1018.82 976.368 638.116 418.33 368.009 840.316 681.213 419.81 284.058 623.294 429.644 289.532 114.423 136.052 193.651 149.981 401.554 66.6747 175.109 95.2376 334.879 51.2668 79.9365 66.0305 130.753 93.0914 72.1257
internal_count=2415 1647 768 1272 577 436 418 1159 895 375 289 848 625 362 171 113 223 190 603 78 191 122 525 62 85 61 178 113 98
is_linear=0
shrinkage=0.01


Tree=6
num_leaves=30
num_cat=0
split_feature=1 3 2 0 0 0 4 2 11 8 0 8 6 8 11 6 8 3 9 9 14 4 9 1 3 2 9 11 3
split_gain=44.9205 20.7071 16.2485 14.8253 9.82285 10.7365 7.0842 6.61771 6.805 5.69286 8.51726 5.42792 5.21239 5.81819 5.06393 4.89712 4.41665 3.86479 3.93541 3.8402 4.32416 3.3835 3.1219 3.11835 3.25198 3.09291 3.0518 3.32739 3.04977
threshold=76.705000000000013 8.1705770120000007 1.5490277350000003 50.95000000000001 54.065000000000005 219.10000000000002 316.50000000000006 0.73743420900000012 5.2750000000000012 18.210000000000004 213.00000000000003 22.350000000000005 76.500000000000014 44.300000000000004 4.6150000000000011 74.500000000000014 18.050000000000004 4.233765087500001 56.743843215000005 43.292497850000011 7.2600000000000007 120.05000000000001 17.733363285000006 91.705000000000013 11.051452765000002 0.75045310650000008 15.686891345000001 4.495000000000001 15.949369980000002
decision_type=2 2 2 2 2 2 2 2 2 2 2 2 2 2 2 2 2 2 2 2 2 2 2 2 2 2 2 2 2
left_child=1 3 4 16 -2 6 11 -5 12 10 28 14 13 19 23 25 22 -14 -19 21 -21 -9 -1 24 -6 -16 -13 -28 -3
right_child=2 9 -4 7 5 -7 -8 8 -10 -11 -12 26 17 -15 15 -17 -18 18 -20 20 -22 -23 -24 -25 -26 -27 27 -29 -30
leaf_value=0.0016505725063230626 0.0025268252744246036 -0.00073818401063389027 0.0032315345044802587 -0.0042956957003390831 -0.0044232584822774942 0.0041653790172428099 0.0018448714631640682 -0.0013753415610631239 0.0012482057334308539 0.0023767062386542844 0.002835479756948481 0.0034005530272411487 0.0016449681184015996 0.0014506353293962987 0.00048585635849458835 0.0024659267755600973 0.0032492327309490711 -0.0023565767956684166 0.002488776789671182 -0.0030499689084474047 0.0022024887757388471 -0.0041291964963559927 -0.0023054009453796162 -0.00040866682369565142 0.001063127327033075 -0.0048065712731292709 0.0010708207062466826 -0.0050331277704182796 -0.0048169111623085946
leaf_weight=38.283375024795532 189.95695972442627 190.92498707771301 380.70689368247986 159.10269927978516 114.3162260055542 50.321544170379639 83.862822532653809 53.005057573318481 57.918702840805054 135.75106191635132 72.853945016860962 30.171570539474487 43.669655084609985 28.090229511260986 20.214742422103882 38.454923629760742 56.115690231323242 130.75339460372925 19.227461814880371 41.481534242630005 25.193156480789185 281.87382698059082 41.653082847595215 31.974583148956299 11.931389331817625 24.335413455963135 29.828473329544067 12.747121334075926 20.279511213302612
leaf_count=29 116 213 191 264 192 18 60 65 47 86 41 15 33 22 19 24 28 178 12 61 17 460 56 34 10 42 25 22 35
internal_value=0 -0.00116504 0.00159656 -0.00196361 0.000621112 -0.000186645 -0.000737122 -0.00245943 -0.00203056 0.000692204 -0.000112817 -0.00142678 -0.00233523 -0.00294917 -0.00214882 -0.000148442 0.00109881 -0.000973105 -0.00173541 -0.00325696 -0.00106532 -0.00369331 -0.000410796 -0.00319824 -0.00390475 -0.00240512 0.000967503 -0.0007567 -0.00112982
internal_weight=0 1396.18 1018.82 976.368 638.116 448.159 397.837 840.316 681.213 419.81 284.058 313.974 623.294 429.644 241.227 83.0051 136.052 193.651 149.981 401.554 66.6747 334.879 79.9365 158.222 126.248 44.5502 72.7472 42.5756 211.204
internal_count=2415 1647 768 1272 577 461 443 1159 895 375 289 383 848 625 321 85 113 223 190 603 78 525 85 236 202 61 62 47 248
is_linear=0
shrinkage=0.01


Tree=7
num_leaves=30
num_cat=0
split_feature=1 3 2 0 0 0 4 2 12 8 0 8 8 11 6 8 6 11 1 14 3 9 2 1 3 2 9 11 3
split_gain=44.0266 20.295 15.9251 14.5303 9.62738 10.5229 6.94323 6.51876 6.51102 5.57958 8.34777 5.3199 5.30935 4.96316 4.79967 4.32876 4.23597 4.27158 4.11353 3.80392 3.41674 3.08044 3.74904 3.05629 3.18727 3.03136 2.99106 3.26118 2.98907
threshold=76.705000000000013 8.1705770120000007 1.5490277350000003 50.95000000000001 54.065000000000005 219.10000000000002 316.50000000000006 1.2451106185000003 5.1118559195000008 18.210000000000004 213.00000000000003 22.350000000000005 7.785000000000001 4.6150000000000011 74.500000000000014 18.050000000000004 83.500000000000014 5.2750000000000012 56.370116405000012 5.9450000000000012 4.7966207015000011 45.768851910000002 0.87695965000000009 91.705000000000013 11.051452765000002 0.75045310650000008 15.686891345000001 4.495000000000001 15.949369980000002
decision_type=2 2 2 2 2 2 2 2 2 2 2 2 2 2 2 2 2 2 2 2 2 2 2 2 2 2 2 2 2
left_child=1 3 4 15 -2 6 11 8 16 10 28 13 -9 23 25 21 17 -5 20 -19 -14 22 -1 24 -6 -15 -13 -28 -3
right_child=2 9 -4 7 5 -7 -8 12 -10 -11 -12 26 18 14 -16 -17 -18 19 -20 -21 -22 -23 -24 -25 -26 -27 27 -29 -30
leaf_value=-0.0022695051940703642 0.0025015570064306622 -0.00073080214697290554 0.0031992189722877752 -0.0035861851659948398 -0.0043790257952600374 0.0041237254733820974 0.001826422861540054 -0.0047573236926853318 0.0029942391858171829 0.0023529391043036539 0.0028071249288215091 0.0033665474039215834 0.00063878818953211423 0.00048099790621827516 0.0024412674922271236 0.0032167405850058446 -0.00016199693005410063 0.0012868833582499596 0.00084290165415352959 -0.0049048394703104202 -0.0047429856488613717 -0.004684346634757623 0.0025485867479361681 -0.0004045801846322634 0.0010524961057171553 -0.0047585055668886139 0.0010601124725076239 -0.0049827963423829539 -0.0047687420712596001
leaf_weight=28.154998302459717 189.95695972442627 190.92498707771301 380.70689368247986 530.18361783027649 114.3162260055542 50.321544170379639 83.862822532653809 29.550144910812378 18.06863260269165 135.75106191635132 72.853945016860962 30.171570539474487 19.635327816009521 20.214742422103882 38.454923629760742 56.115690231323242 45.644216299057007 34.63533878326416 119.14234471321106 13.905950546264647 29.550144910812378 13.905950546264647 37.875509023666382 31.974583148956299 11.931389331817625 24.335413455963135 29.828473329544067 12.747121334075926 20.279511213302612
leaf_count=38 116 213 191 825 192 18 60 51 10 86 41 15 18 19 24 28 47 28 105 24 51 24 23 34 10 42 25 22 35
internal_value=0 -0.00115339 0.00158059 -0.00194397 0.000614901 -0.000184778 -0.000729751 -0.00243484 -0.00292365 0.000685282 -0.000111688 -0.00141251 -0.000847833 -0.00212733 -0.000146957 0.00108782 -0.00309491 -0.00332623 -0.000161517 -0.000486901 -0.00259453 -0.000406688 0.000494182 -0.00316626 -0.0038657 -0.00238107 0.000957828 -0.000749133 -0.00111852
internal_weight=0 1396.18 1018.82 976.368 638.116 448.159 397.837 840.316 642.438 419.81 284.058 313.974 197.878 241.227 83.0051 136.052 624.369 578.725 168.328 48.5413 49.1855 79.9365 66.0305 158.222 126.248 44.5502 72.7472 42.5756 211.204
internal_count=2415 1647 768 1272 577 461 443 1159 934 375 289 383 225 321 85 113 924 877 174 52 69 85 61 236 202 61 62 47 248
is_linear=0
shrinkage=0.01


Tree=8
num_leaves=30
num_cat=0
split_feature=1 3 2 0 0 0 4 2 11 8 0 6 8 8 1 8 3 9 9 14 9 9 14 5 9 11 11 12 4
split_gain=43.1504 19.8912 15.6082 14.2412 9.44012 10.8508 7.21634 6.42706 6.57929 5.46854 8.18164 5.03275 5.64652 4.7699 4.82024 4.24261 3.78583 3.83112 3.75717 4.22781 3.34414 4.05112 3.33818 3.30998 3.03809 3.01518 3.07038 3.6547 2.95033
threshold=76.705000000000013 8.1705770120000007 1.5490277350000003 50.95000000000001 57.555000000000007 219.10000000000002 316.50000000000006 0.73743420900000012 5.2750000000000012 18.210000000000004 213.00000000000003 76.500000000000014 44.300000000000004 12.290000000000001 94.455000000000027 18.050000000000004 4.233765087500001 56.743843215000005 43.292497850000011 7.2600000000000007 24.884831685000005 54.802139880000006 4.2550000000000008 1.0000000180025095e-35 17.733363285000006 3.9850000000000008 4.1014576240000009 0.13950000000000004 165.05000000000004
decision_type=2 2 2 2 2 2 2 2 2 2 2 2 2 2 2 2 2 2 2 2 2 2 2 2 2 2 2 2 2
left_child=1 3 4 15 28 6 13 -5 11 10 -3 12 18 14 -6 24 -13 25 22 -20 -15 -22 23 -9 -1 -18 -27 -28 -2
right_child=2 9 -4 7 5 -7 -8 8 -10 -11 -12 16 -14 20 -16 -17 17 -19 19 -21 21 -23 -24 -25 -26 26 27 -29 -30
leaf_value=0.0016308891382652479 -0.00027338931613852662 -0.0011073333425394962 0.0031672265956912021 -0.0042201088186122563 -0.0040001359665124622 0.0040824882016510513 0.0018213128901822984 -0.0046529312672848088 0.0012360892898316763 0.0023294096797593371 0.0027790536389945119 0.0016422217106764798 0.0014437289177611325 0.00094911809752027082 0.0019845474961476305 0.0031845730979525593 -0.0047037737916021186 0.0024643929468384103 -0.0029884966284531877 0.0022051168361603437 -0.0039879048625217819 0.00014162017448644779 -0.0040499962650746776 0.00063538791894763322 -0.0022716216080698732 0.0020180247192569307 0.00065244415670771187 -0.0040288106277019363 0.0028111071827080399
leaf_weight=38.283375024795532 37.360863208770752 211.20449829101562 380.70689368247986 159.10269927978516 98.84358024597168 50.321544170379639 78.476542472839355 18.541267395019531 57.918702840805054 135.75106191635132 72.853945016860962 43.669655084609985 28.090229511260986 79.871689081192017 15.579425573348997 56.115690231323242 37.661949396133423 19.227461814880371 41.481534242630005 25.193156480789185 45.365887880325317 49.871667146682739 283.6120707988739 32.725546360015869 41.653082847595215 20.965705633163452 26.180437088012695 45.945302486419678 182.42456984519958
leaf_count=29 38 248 191 264 160 18 56 32 47 86 41 33 22 69 11 28 65 12 61 17 73 49 463 30 56 15 24 74 103
internal_value=0 -0.00114186 0.00156479 -0.00192453 0.000608752 -0.000272862 -0.000868413 -0.00241049 -0.00198784 0.000678429 -0.000110571 -0.00228742 -0.00289068 -0.00159745 -0.00318528 0.00107694 -0.000948969 -0.00170344 -0.00319389 -0.00102608 -0.000559904 -0.00182546 -0.00362551 -0.0012772 -0.000402621 -0.00231633 -0.00135044 -0.00232959 0.00228678
internal_weight=0 1396.18 1018.82 976.368 638.116 418.33 368.009 840.316 681.213 419.81 284.058 623.294 429.644 289.532 114.423 136.052 193.651 149.981 401.554 66.6747 175.109 95.2376 334.879 51.2668 79.9365 130.753 93.0914 72.1257 219.785
internal_count=2415 1647 768 1272 577 436 418 1159 895 375 289 848 625 362 171 113 223 190 603 78 191 122 525 62 85 178 113 98 141
is_linear=0
shrinkage=0.01


Tree=9
num_leaves=30
num_cat=0
split_feature=2 0 0 4 5 6 1 9 4 0 2 1 4 0 3 1 4 1 0 5 0 10 3 7 11 0 3 8 8
split_gain=42.3477 25.7289 20.5172 12.307 8.48921 9.48678 8.17251 7.4284 7.38163 6.41296 6.91644 5.21261 5.00128 8.38863 4.77558 4.15171 4.03843 3.7956 4.87624 3.63706 3.57889 3.53516 3.50471 3.11121 2.81132 3.77845 3.70553 2.71272 2.65009
threshold=1.4820926185000001 50.95000000000001 165.25000000000003 316.50000000000006 1.0000000180025095e-35 75.500000000000014 54.550000000000004 40.585937005000012 152.95000000000002 65.90000000000002 1.1656126225000001 68.520000000000024 185.85000000000002 43.850000000000009 8.2368137780000019 82.050000000000011 129.95000000000002 83.420000000000016 72.835000000000022 1.0000000180025095e-35 100.95000000000002 23.205000000000002 5.550798051000001 3.1350000000000002 3.2850000000000006 264.90000000000003 10.203387300000001 12.605000000000002 18.450000000000006
decision_type=2 2 2 2 2 2 2 2 2 2 2 2 2 2 2 2 2 2 2 2 2 2 2 2 2 2 2 2 2
left_child=1 12 3 4 5 17 27 11 28 -7 -11 14 13 -1 -6 -13 -9 21 23 24 -12 -3 -5 -19 -10 26 -26 -2 -8
right_child=6 2 -4 22 7 9 8 16 19 10 20 15 -14 -15 -16 -17 -18 18 -20 -21 -22 -23 -24 -25 25 -27 -28 -29 -30
leaf_value=0.0019701003119718587 -0.004784562047207115 -0.0041515473512303133 0.0030213496757952093 -0.0021216336668154405 -0.0033440421075307627 0.0015003400625614213 -0.00083275636131823123 -0.0047376744626085278 0.0032262968504696153 -0.0043301837778620747 0.00052985092870214742 0.0012820844192196581 0.0028185370081734227 -0.0039683851365668174 0.000160179092490631 -0.0034110729682382298 0.0015985095834873647 -0.0019497843118758862 -0.0047529608930445459 0.003645787201698942 -0.0047849540396959055 -0.0001249242814838931 0.0020393728406123794 0.0032039530552837319 0.0013124973079356778 0.0040644723274623849 -0.0027183479827082731 0.00031942081118666108 0.0024934818466833702
leaf_weight=77.317713260650635 20.858925819396973 385.18117547035217 97.059820890426636 25.257925271987915 184.29585576057434 67.532433748245239 86.889433145523071 11.008877515792845 112.23138046264648 78.392520427703857 79.700140476226807 75.815786838531494 186.65202069282532 34.357010364532471 49.292252540588379 25.086376667022705 116.58836889266968 24.678510665893555 28.391315698623657 270.89995145797729 15.064779758453367 23.111815452575684 101.93145513534546 22.296083450317383 96.202077865600586 35.14998459815979 29.893242120742798 20.794157028198242 33.068643569946289
leaf_count=54 36 633 51 33 281 53 97 19 56 130 74 62 105 54 48 38 90 32 49 118 26 24 70 12 76 13 41 20 20
internal_value=0 -0.000851103 -0.00141535 -0.00174316 -0.00206008 -0.0027357 0.0020603 -0.00100101 0.00232971 -0.00111341 -0.00213279 -0.00178411 0.00181703 0.00014311 -0.00260457 0.000115268 0.00105183 -0.00354301 -0.00148111 0.00282453 -0.000315044 -0.00392362 0.00121306 0.000496392 0.002011 0.00116512 0.00035691 -0.00223654 8.41822e-05
internal_weight=0 1709.01 1410.69 1313.63 1186.44 724.349 705.988 462.088 664.335 240.69 173.157 334.49 298.327 111.675 233.588 100.902 127.597 483.659 75.3659 544.377 94.7649 408.293 127.189 46.9746 273.477 161.245 126.095 41.6531 119.958
internal_count=2415 1938 1725 1674 1571 1033 477 538 421 283 230 429 213 108 329 100 109 750 93 304 100 657 103 44 186 130 117 56 117
is_linear=0
shrinkage=0.01


Tree=10
num_leaves=30
num_cat=0
split_feature=1 3 2 0 0 0 4 2 11 4 8 9 0 8 6 8 11 6 2 12 3 9 9 14 4 11 11 12 2
split_gain=41.6303 19.114 15.055 13.6413 9.14112 9.96762 6.55836 6.2262 6.42774 5.32191 5.19992 5.25432 5.81709 5.10883 4.83667 5.47312 4.81828 4.63234 4.18796 3.7205 3.67079 3.71521 3.63287 4.13313 3.2625 2.95023 2.98176 3.55586 2.93578
threshold=76.705000000000013 8.1705770120000007 1.5490277350000003 50.95000000000001 54.065000000000005 219.10000000000002 316.50000000000006 0.73743420900000012 5.2750000000000012 224.10000000000002 12.505000000000001 76.849909450000013 574.00000000000011 22.350000000000005 76.500000000000014 44.300000000000004 4.6150000000000011 74.500000000000014 1.0393919465000001 0.64586321150000015 4.233765087500001 56.743843215000005 43.292497850000011 7.2600000000000007 120.05000000000001 3.9850000000000008 4.1014576240000009 0.13950000000000004 0.75045310650000008
decision_type=2 2 2 2 2 2 2 2 2 2 2 2 2 2 2 2 2 2 2 2 2 2 2 2 2 2 2 2 2
left_child=1 3 4 18 -2 6 13 -5 14 10 11 12 -3 16 15 22 -6 28 19 -1 -16 25 24 -24 -9 -22 -27 -28 -18
right_child=2 9 -4 7 5 -7 -8 8 -10 -11 -12 -13 -14 -15 20 -17 17 -19 -20 -21 21 -23 23 -25 -26 26 27 -29 -30
leaf_value=-0.0020657324611390443 0.0024364311717696599 -0.0036173959262772392 0.0031107602686561626 -0.0041455255275821426 -0.0030992990279251156 0.0040121108207376898 0.0017727332225238829 -0.0012827067608720025 0.0012381690414634385 0.0023864403109267606 0.0011701097799702612 0.0021596657187521297 0.002531096825991661 0.00094768946286399251 0.0016191104037916139 0.001431421189655363 0.0004973691356936268 0.0024183146752057329 0.0033035693570397863 0.0021933122101565577 -0.0046404603494056762 0.0024289742946379616 -0.0029431021138950904 0.0021920273655472787 -0.0039868694888179511 0.0019960558661033558 0.00065307396784692272 -0.0039644406492029003 -0.0046588711214629484
leaf_weight=49.93643593788147 189.95695972442627 88.006251335144043 380.70689368247986 159.10269927978516 158.22219848632812 50.321544170379639 83.862822532653809 53.005057573318481 57.918702840805054 125.55791640281677 157.01785373687744 30.579436540603638 18.648047208786011 72.747165203094482 43.669655084609985 28.090229511260986 20.214742422103882 38.454923629760742 51.308824777603149 34.80688738822937 37.661949396133423 19.227461814880371 41.481534242630005 25.193156480789185 281.87382698059082 20.965705633163452 26.180437088012695 45.945302486419678 24.335413455963135
leaf_count=65 116 136 191 264 236 18 60 65 47 79 128 21 11 62 33 22 19 24 25 23 65 12 61 17 460 15 24 74 42
internal_value=0 -0.00112157 0.00153698 -0.00188879 0.000598038 -0.000181184 -0.000711585 -0.00236441 -0.00194841 0.000662807 -7.26724e-05 -0.00149462 -0.00254236 -0.00137515 -0.00224452 -0.00283592 -0.00207565 -0.000124393 0.00104878 -0.000316402 -0.000932405 -0.00167533 -0.00313444 -0.00100278 -0.00355885 -0.00227887 -0.00132344 -0.00228836 -0.00231921
internal_weight=0 1396.18 1018.82 976.368 638.116 448.159 397.837 840.316 681.213 419.81 294.252 137.234 106.654 313.974 623.294 429.644 241.227 83.0051 136.052 84.7433 193.651 149.981 401.554 66.6747 334.879 130.753 93.0914 72.1257 44.5502
internal_count=2415 1647 768 1272 577 461 443 1159 895 375 296 168 147 383 848 625 321 85 113 88 223 190 603 78 525 178 113 98 61
is_linear=0
shrinkage=0.01


Tree=11
num_leaves=30
num_cat=0
split_feature=1 3 2 0 0 0 2 4 11 0 8 0 6 12 8 1 9 14 9 9 10 11 6 8 3 9 8 8 2
split_gain=40.8018 18.7336 14.7554 13.3709 8.97321 10.2811 7.18042 6.82421 6.23554 5.7345 5.25286 7.77236 4.86137 4.86764 4.56304 4.66243 3.94173 3.29537 3.2498 3.9014 3.20035 3.07091 2.99263 4.21198 2.90266 3.39617 4.49547 5.18346 2.9308
threshold=76.705000000000013 8.1705770120000007 1.5490277350000003 56.880000000000003 57.555000000000007 219.10000000000002 1.0393919465000001 316.50000000000006 5.2750000000000012 44.300000000000004 18.210000000000004 213.00000000000003 76.500000000000014 5.1118559195000008 12.290000000000001 94.455000000000027 56.743843215000005 7.4050000000000011 24.884831685000005 54.802139880000006 21.080000000000002 3.9850000000000008 86.500000000000014 10.305000000000001 15.949369980000002 76.849909450000013 12.505000000000001 14.705000000000002 1.9295751305000002
decision_type=2 2 2 2 2 2 2 2 2 2 2 2 2 2 2 2 2 2 2 2 2 2 2 2 2 2 2 2 2
left_child=1 3 4 6 -2 7 9 14 12 -1 11 24 13 20 15 -6 21 -11 -16 -20 -5 -14 23 -23 25 26 28 -28 -3
right_child=2 10 -4 8 5 -7 -8 -9 -10 17 -12 -13 16 -15 18 -17 -18 -19 19 -21 -22 22 -24 -25 -26 -27 27 -29 -30
leaf_value=0.00097060990032555401 0.0022280622256371351 -0.0037676390062406848 0.0030796527130168066 -0.0036578265208395268 -0.003910559581134088 0.0039719895086820509 0.0026545067318302835 0.0017684436182481078 0.00045953996535399229 -0.0047118962847557252 0.0022742735885308138 0.0026993157459502459 -0.0039652562392807813 0.002490806570425266 0.00094624614646994011 0.0019753391189361882 0.0024200711208590847 0.0012046553140550231 -0.0039110213814421589 0.00014147456211149249 -0.00093855282112358834 0.00068155109587297597 0.0014772749365012047 -0.0040007369023732937 -0.0046856905490913394 0.0024183067944707581 0.002411521360122613 -0.0033095208881946275 0.00056405505162803989
leaf_weight=60.236361265182495 219.78543305397034 68.714020729064941 380.70689368247986 458.63729286193848 98.84358024597168 50.321544170379639 84.205919742584229 78.476542472839355 66.609921932220459 44.614924669265747 135.75106191635132 72.853945016860962 50.580619335174561 14.420596361160277 79.871689081192017 15.579425573348997 24.034327268600464 11.931389331817625 45.365887880325317 49.871667146682739 47.790326118469238 32.725546360015869 34.0559241771698 46.524717092514038 20.279511213302612 29.420607328414917 49.227483749389648 23.348132848739624 20.214742422103882
leaf_count=51 141 108 191 728 160 18 50 56 62 77 86 41 82 9 69 11 15 10 73 49 56 30 27 75 35 19 32 35 19
internal_value=0 -0.00111035 0.00152161 -0.00186991 0.000592058 -0.000267478 0.000428599 -0.000847183 -0.00246571 -0.00117639 0.000656179 -0.000117106 -0.00274062 -0.00323808 -0.00155614 -0.00310916 -0.00136184 -0.00346349 -0.000541337 -0.00178891 -0.00340122 -0.00191647 -0.00100188 -0.00206724 -0.00108862 -0.000706546 -0.00127579 0.000571018 -0.00278298
internal_weight=0 1396.18 1018.82 976.368 638.116 418.33 200.989 368.009 775.379 116.783 419.81 284.058 708.769 520.848 289.532 114.423 187.921 56.5463 175.109 95.2376 506.428 163.887 113.306 79.2503 211.204 190.925 161.504 72.5756 88.9288
internal_count=2415 1647 768 1272 577 436 188 418 1084 138 375 289 1022 793 362 171 229 87 191 122 784 214 132 105 248 213 194 67 127
is_linear=0
shrinkage=0.01


Tree=12
num_leaves=30
num_cat=0
split_feature=2 0 0 4 5 6 1 9 4 0 2 1 4 0 3 1 4 1 0 5 0 3 10 7 11 0 3 6 8
split_gain=40.0111 24.3431 19.4211 11.6163 8.23228 9.08346 7.77653 7.12764 7.06051 6.1615 6.70153 4.97705 4.82659 8.13479 4.51583 4.04134 3.90006 3.62378 4.70723 3.53205 3.46095 3.39914 3.39321 3.03511 2.71638 3.67286 2.79579 3.76855 2.60378
threshold=1.4820926185000001 50.95000000000001 165.25000000000003 316.50000000000006 1.0000000180025095e-35 75.500000000000014 54.550000000000004 40.585937005000012 152.95000000000002 65.90000000000002 1.1656126225000001 68.520000000000024 185.85000000000002 43.850000000000009 8.2368137780000019 82.050000000000011 129.95000000000002 83.420000000000016 72.835000000000022 1.0000000180025095e-35 100.95000000000002 5.550798051000001 23.205000000000002 3.1350000000000002 3.2850000000000006 352.50000000000006 10.203387300000001 86.500000000000014 12.605000000000002
decision_type=2 2 2 2 2 2 2 2 2 2 2 2 2 2 2 2 2 2 2 2 2 2 2 2 2 2 2 2 2
left_child=1 12 3 4 5 17 28 11 -8 -7 -11 14 13 -1 -6 -13 -9 22 23 24 -12 -5 -3 -19 -10 26 -26 -28 -2
right_child=6 2 -4 21 7 9 8 16 19 10 20 15 -14 -15 -16 -17 -18 18 -20 -21 -22 -23 -24 -25 25 -27 27 -29 -30
leaf_value=0.0019227050116136285 -0.0046851354368421354 -0.0040534415064118565 0.0029404344218797525 -0.0021070902367718337 -0.0032479131970490622 0.001481144589966014 6.9313286203012169e-05 -0.004638645730803523 0.0031422944974391067 -0.0042430273179065404 0.00054009639566247913 0.0012800432476404982 0.0027518534873542323 -0.0039252431456570187 0.00015967583776382743 -0.0033503121771938748 0.0015880442617207031 -0.0019167003367894649 -0.0046582005652937306 0.0035587080927456361 -0.0046864002455850136 0.0019907706217958065 -0.00010848627132523289 0.0031736221947105147 0.0012672994097954115 0.0042509660852926212 -0.0051202674736013833 0.0014863289627893956 0.00031531424441303974
leaf_weight=77.317713260650635 20.858925819396973 385.18117547035217 97.059820890426636 25.257925271987915 184.29585576057434 67.532433748245239 119.95807671546936 11.008877515792845 112.23138046264648 78.392520427703857 79.700140476226807 75.815786838531494 186.65202069282532 34.357010364532471 49.292252540588379 25.086376667022705 116.58836889266968 24.678510665893555 28.391315698623657 270.89995145797729 15.064779758453367 101.93145513534546 23.111815452575684 22.296083450317383 96.202077865600586 30.343119144439697 18.541267395019531 16.158840179443359 20.794157028198242
leaf_count=54 36 633 51 33 281 53 117 19 56 130 74 62 105 54 48 38 90 32 49 118 26 70 24 12 76 10 32 12 20
internal_value=0 -0.000827289 -0.00137613 -0.00169507 -0.00200296 -0.00266827 0.00200265 -0.000960045 0.00226545 -0.00108085 -0.00208005 -0.00172712 0.00176799 0.000123569 -0.00252884 0.000128841 0.00105082 -0.00345825 -0.00144355 0.00274939 -0.00029076 0.001177 -0.00383013 0.000499377 0.0019477 0.00111622 0.000389588 -0.00204377 -0.0021888
internal_weight=0 1709.01 1410.69 1313.63 1186.44 724.349 705.988 462.088 664.335 240.69 173.157 334.49 298.327 111.675 233.588 100.902 127.597 483.659 75.3659 544.377 94.7649 127.189 408.293 46.9746 273.477 161.245 130.902 34.7001 41.6531
internal_count=2415 1938 1725 1674 1571 1033 477 538 421 283 230 429 213 108 329 100 109 750 93 304 100 103 657 44 186 130 120 44 56
is_linear=0
shrinkage=0.01


Tree=13
num_leaves=30
num_cat=0
split_feature=1 3 2 0 0 0 2 4 2 11 0 8 0 8 11 9 6 1 12 14 6 14 12 12 4 1 3 9 11
split_gain=39.3573 18.0072 14.2279 12.8426 8.67757 9.44255 6.98739 6.19589 6.09635 6.63509 5.51532 5.12431 7.47609 4.90859 4.67832 4.51611 4.4714 4.31972 5.23122 3.19417 3.17253 3.25678 2.88633 2.88039 2.8726 2.86348 2.99547 2.84066 3.11032
threshold=76.705000000000013 8.1705770120000007 1.5490277350000003 56.880000000000003 54.065000000000005 219.10000000000002 1.0393919465000001 316.50000000000006 0.73743420900000012 5.2750000000000012 44.300000000000004 18.210000000000004 213.00000000000003 22.350000000000005 4.6150000000000011 56.743843215000005 74.500000000000014 58.050000000000004 3.3648889875000005 7.4050000000000011 83.500000000000014 5.7937219640000004 0.29950000000000004 0.19127725100000001 196.15000000000003 91.705000000000013 11.051452765000002 15.686891345000001 4.495000000000001
decision_type=2 2 2 2 2 2 2 2 2 2 2 2 2 2 2 2 2 2 2 2 2 2 2 2 2 2 2 2 2
left_child=1 3 4 6 -2 7 10 13 -5 15 -1 12 -3 14 25 17 24 -10 20 -12 21 -19 -17 -22 -16 26 -6 -15 -29
right_child=2 11 -4 8 5 -7 -8 -9 9 -11 19 -13 -14 27 16 22 -18 18 -20 -21 23 -23 -24 -25 -26 -27 -28 28 -30
leaf_value=0.00093973694065968701 0.0023728207143816735 -0.0010751551410385638 0.0030243744688468266 -0.0042497697324767447 -0.0042087363980233758 0.0039037932804922627 0.0026132215571497319 0.0017208868587203843 -0.0037989537084054332 0.0012351767790893761 -0.0046378864891797357 0.0022395978291500454 0.002639881200442608 0.0032854683660656627 -0.0046347841759265046 0.0020703202267289326 0.0023954500989635916 -0.0018297933748940565 0.0035116641794803224 0.001187110459314161 0.0019274850438441094 -0.0042085807971302515 -0.0028761765916160069 -0.0023981405188307722 0.00045506357956571228 -0.00036093176336262403 0.0010568199865981598 0.0010415024923929751 -0.0048599785333673044
leaf_weight=60.236361265182495 189.95695972442627 211.20449829101562 380.70689368247986 147.34285855293274 114.3162260055542 50.321544170379639 84.205919742584229 83.862822532653809 190.73418521881104 57.918702840805054 44.614924669265747 135.75106191635132 72.853945016860962 30.171570539474487 23.755998849868774 35.965716600418091 38.454923629760742 156.18286848068237 16.90980339050293 11.931389331817625 31.738265752792358 91.139641761779785 17.553986787796021 29.893242120742798 20.794157028198242 31.974583148956299 11.931389331817625 29.828473329544067 12.747121334075926
leaf_count=51 116 248 191 249 192 18 50 60 308 47 77 86 41 15 41 25 24 206 8 10 23 152 25 41 20 34 10 25 22
internal_value=0 -0.00109052 0.00149443 -0.0018352 0.000581647 -0.000177562 0.000417437 -0.000693803 -0.00241912 -0.00198963 -0.00116583 0.000641424 -0.00012234 -0.00133877 -0.0020254 -0.00231724 -0.000102697 -0.00260371 -0.00190412 -0.0034088 -0.00220053 -0.00270639 0.000447913 -0.000170581 -0.00225906 -0.00303408 -0.0037111 0.000938091 -0.000725399
internal_weight=0 1396.18 1018.82 976.368 638.116 448.159 200.989 397.837 775.379 628.036 116.783 419.81 284.058 313.974 241.227 570.118 83.0051 516.598 325.864 56.5463 308.954 247.323 53.5197 61.6315 44.5502 158.222 126.248 72.7472 42.5756
internal_count=2415 1647 768 1272 577 461 188 443 1084 835 138 375 289 383 321 788 85 738 430 87 422 358 50 64 61 236 202 62 47
is_linear=0
shrinkage=0.01


Tree=14
num_leaves=30
num_cat=0
split_feature=1 3 2 0 0 0 4 2 11 4 8 9 0 6 8 8 1 8 3 9 9 14 14 5 9 3 9 11 11
split_gain=38.5741 17.6489 13.9448 12.5956 8.5077 9.73746 6.44721 5.84463 6.0583 5.02795 4.93177 5.03483 5.44406 4.49875 5.14962 4.36483 4.48356 4.03965 3.50942 3.50135 3.42253 3.95239 3.19944 3.18752 3.12683 3.76521 2.94426 2.82943 2.85421
threshold=76.705000000000013 8.1705770120000007 1.5490277350000003 50.95000000000001 57.555000000000007 219.10000000000002 316.50000000000006 0.73743420900000012 5.2750000000000012 224.10000000000002 12.505000000000001 76.849909450000013 574.00000000000011 76.500000000000014 44.300000000000004 12.290000000000001 94.455000000000027 18.050000000000004 4.233765087500001 56.743843215000005 43.292497850000011 7.2600000000000007 4.2550000000000008 1.0000000180025095e-35 24.884831685000005 9.0386174510000021 17.733363285000006 3.9850000000000008 4.1014576240000009
decision_type=2 2 2 2 2 2 2 2 2 2 2 2 2 2 2 2 2 2 2 2 2 2 2 2 2 2 2 2 2
left_child=1 3 4 17 -2 6 15 -5 13 10 11 12 -3 14 20 16 -6 26 -15 27 22 -22 23 -9 -17 -26 -1 -20 -29
right_child=2 9 -4 7 5 -7 -8 8 -10 -11 -12 -13 -14 18 -16 24 -18 -19 19 -21 21 -23 -24 -25 25 -27 -28 28 -30
leaf_value=0.0015640136248316044 0.0021688335199201692 -0.0035302840097472463 0.0029941306560769018 -0.0039995492646606448 -0.0038191723541653321 0.0038647552484282789 0.0017170642166810454 -0.0044438798392319942 0.001222825014334353 0.0023103639019652639 0.0011304450931057775 0.002112479547608861 0.0024178018294795209 0.0016019545515129575 0.001410638361420974 0.00093730445974356681 0.001952721191618981 0.0030624892677907317 -0.0045179079026445405 0.0023651638578416094 -0.0028466216121264586 0.0021749759602638298 -0.0038457443533372747 0.00074569277344770243 -0.0030693726818919226 0.001240937285711859 -0.0022777603677045623 0.0019782101992569801 -0.002213565170317313
leaf_weight=38.283375024795532 219.78543305397034 88.006251335144043 380.70689368247986 159.10269927978516 98.84358024597168 50.321544170379639 78.476542472839355 18.541267395019531 57.918702840805054 125.55791640281677 157.01785373687744 30.579436540603638 18.648047208786011 43.669655084609985 28.090229511260986 79.871689081192017 15.579425573348997 56.115690231323242 37.661949396133423 19.227461814880371 41.481534242630005 25.193156480789185 283.6120707988739 32.725546360015869 65.98849630355835 29.249058723449707 41.653082847595215 20.965705633163452 72.125739574432373
leaf_count=29 141 136 191 264 160 18 56 32 47 79 128 21 11 33 22 69 11 28 65 12 61 17 463 30 98 24 56 15 98
internal_value=0 -0.00107961 0.00147948 -0.00181685 0.00057583 -0.000261113 -0.000825285 -0.00227387 -0.00187083 0.00063501 -7.9868e-05 -0.00146466 -0.00249029 -0.0021583 -0.00272867 -0.00151438 -0.00303329 0.00100589 -0.00089285 -0.00161926 -0.00301823 -0.000949202 -0.00343017 -0.00113118 -0.000521863 -0.0017456 -0.000437848 -0.00220517 -0.00126951
internal_weight=0 1396.18 1018.82 976.368 638.116 418.33 368.009 840.316 681.213 419.81 294.252 137.234 106.654 623.294 429.644 289.532 114.423 136.052 193.651 149.981 401.554 66.6747 334.879 51.2668 175.109 95.2376 79.9365 130.753 93.0914
internal_count=2415 1647 768 1272 577 436 418 1159 895 375 296 168 147 848 625 362 171 113 223 190 603 78 525 62 191 122 85 178 113
is_linear=0
shrinkage=0.01


Tree=15
num_leaves=30
num_cat=0
split_feature=2 0 0 4 5 6 1 9 4 0 2 1 4 0 3 1 4 1 0 5 0 3 10 7 11 0 3 6 8
split_gain=37.853 23.0319 18.3975 10.9789 7.92554 8.68804 7.3817 6.83188 6.76589 5.90119 6.48886 4.73438 4.66378 7.89964 4.27769 3.91741 3.75168 3.46496 4.53063 3.43313 3.35301 3.30903 3.25998 2.94966 2.63831 3.56698 2.75597 3.67179 2.52048
threshold=1.4820926185000001 50.95000000000001 165.25000000000003 316.50000000000006 1.0000000180025095e-35 75.500000000000014 54.550000000000004 40.585937005000012 152.95000000000002 65.90000000000002 1.1656126225000001 68.520000000000024 185.85000000000002 43.850000000000009 8.2368137780000019 82.050000000000011 129.95000000000002 83.420000000000016 72.835000000000022 1.0000000180025095e-35 100.95000000000002 5.550798051000001 23.205000000000002 3.1350000000000002 3.2850000000000006 352.50000000000006 10.203387300000001 86.500000000000014 12.605000000000002
decision_type=2 2 2 2 2 2 2 2 2 2 2 2 2 2 2 2 2 2 2 2 2 2 2 2 2 2 2 2 2
left_child=1 12 3 4 5 17 28 11 -8 -7 -11 14 13 -1 -6 -13 -9 22 23 24 -12 -5 -3 -19 -10 26 -26 -28 -2
right_child=6 2 -4 21 7 9 8 16 19 10 20 15 -14 -15 -16 -17 -18 18 -20 -21 -22 -23 -24 -25 25 -27 27 -29 -30
leaf_value=0.0018762421637694591 -0.0045918422345310149 -0.0039561853756855617 0.0028627469502796737 -0.002097043810898072 -0.0031577477748193127 0.0014587092146151909 5.4106849619408898e-05 -0.0045364563583784922 0.0030645869770869116 -0.0041548306272483175 0.00055201815616801031 0.0012676016550263276 0.0026868779604147363 -0.0038865637729500802 0.00015877520062086413 -0.0032912031651050008 0.0015706381148336054 -0.0018792911050707233 -0.0045573763390678755 0.003475573924184374 -0.0045923277654989145 0.0019461342100843047 -8.945797096246487e-05 0.0031388575201104509 0.0012231997654725607 0.0041570732762242551 -0.0051009540759023491 0.0014202762267162235 0.0003279657463860034
leaf_weight=77.317713260650635 20.858925819396973 385.18117547035217 97.059820890426636 25.257925271987915 184.29585576057434 67.532433748245239 119.95807671546936 11.008877515792845 112.23138046264648 78.392520427703857 79.700140476226807 75.815786838531494 186.65202069282532 34.357010364532471 49.292252540588379 25.086376667022705 116.58836889266968 24.678510665893555 28.391315698623657 270.89995145797729 15.064779758453367 101.93145513534546 23.111815452575684 22.296083450317383 96.202077865600586 30.343119144439697 18.541267395019531 16.158840179443359 20.794157028198242
leaf_count=54 36 633 51 33 281 53 117 19 56 130 74 62 105 54 48 38 90 32 49 118 26 70 24 12 76 10 32 12 20
internal_value=0 -0.000804669 -0.00133852 -0.00164894 -0.00194827 -0.00260107 0.00194789 -0.000924969 0.00220394 -0.00104859 -0.00202645 -0.00167596 0.00171975 0.0001033 -0.00245789 0.000134188 0.00104373 -0.00337366 -0.0014036 0.00267767 -0.000265779 0.00114322 -0.00373731 0.00050253 0.00188728 0.00106784 0.000351761 -0.00206421 -0.00213576
internal_weight=0 1709.01 1410.69 1313.63 1186.44 724.349 705.988 462.088 664.335 240.69 173.157 334.49 298.327 111.675 233.588 100.902 127.597 483.659 75.3659 544.377 94.7649 127.189 408.293 46.9746 273.477 161.245 130.902 34.7001 41.6531
internal_count=2415 1938 1725 1674 1571 1033 477 538 421 283 230 429 213 108 329 100 109 750 93 304 100 103 657 44 186 130 120 44 56
is_linear=0
shrinkage=0.01


Tree=16
num_leaves=30
num_cat=0
split_feature=1 3 2 0 0 0 2 4 11 11 8 0 8 11 6 12 6 0 9 10 11 6 8 2 3 9 8 8 2
split_gain=37.2073 16.9635 13.4463 12.117 8.23778 8.94528 6.75353 5.85331 5.82825 5.33786 4.93759 7.10235 4.71392 4.54167 4.43117 4.55779 4.31568 4.07769 3.66558 3.00712 2.92649 2.83428 4.05284 2.79448 2.79054 3.18495 4.23745 5.03841 2.81904
threshold=76.705000000000013 8.1705770120000007 1.5490277350000003 56.880000000000003 54.065000000000005 219.10000000000002 1.0393919465000001 316.50000000000006 5.2750000000000012 5.1250000000000009 18.210000000000004 213.00000000000003 22.350000000000005 4.6150000000000011 76.500000000000014 5.1118559195000008 74.500000000000014 42.850000000000001 56.743843215000005 21.080000000000002 3.9850000000000008 86.500000000000014 10.305000000000001 0.75045310650000008 15.949369980000002 76.849909450000013 12.505000000000001 14.705000000000002 1.9295751305000002
decision_type=2 2 2 2 2 2 2 2 2 2 2 2 2 2 2 2 2 2 2 2 2 2 2 2 2 2 2 2 2
left_child=1 3 4 6 -2 7 9 12 14 17 11 24 13 -6 15 19 23 -1 20 -5 -16 22 -22 -15 25 26 28 -28 -3
right_child=2 10 -4 8 5 -7 -8 -9 -10 -11 -12 -13 -14 16 18 -17 -18 -19 -20 -21 21 -23 -24 -25 -26 -27 27 -29 -30
leaf_value=0.00020444212185997694 0.0023108769796470262 -0.0036633637155761381 0.0029403615359834628 -0.0034975954528352433 -0.0029700969023494952 0.0037983973857030019 0.0025637078177216848 0.0016704838759410861 0.00047782800899507359 0.0033215568473291229 0.0021894719817437186 0.0025632586616125669 0.00092787165377627827 0.00054764049287167724 -0.0038345703192187715 0.0024525616248099818 0.0023724159928561702 -0.0039772696532081007 0.0023473303142059936 -0.0008616909049585118 0.00071785183128274927 0.00147095718187828 -0.0038751311137205013 -0.0044829767985385578 -0.0045846465579809925 0.0023430109072789594 0.0023732293573394386 -0.0032672035416169733 0.0005849323199284323
leaf_weight=41.008899450302124 189.95695972442627 68.714020729064941 380.70689368247986 458.63729286193848 158.22219848632812 50.321544170379639 84.205919742584229 83.862822532653809 66.609921932220459 21.716668844223022 135.75106191635132 72.853945016860962 72.747165203094482 20.214742422103882 50.580619335174561 14.420596361160277 38.454923629760742 54.057106971740723 24.034327268600464 47.790326118469238 32.725546360015869 34.0559241771698 46.524717092514038 24.335413455963135 20.279511213302612 29.420607328414917 49.227483749389648 23.348132848739624 20.214742422103882
leaf_count=39 116 108 191 728 236 18 50 60 62 11 86 41 62 19 82 9 24 88 15 56 30 27 75 42 35 19 32 35 19
internal_value=0 -0.00106031 0.00145304 -0.0017831 0.000565683 -0.000174037 0.000404982 -0.000676501 -0.00235027 -0.00115156 0.000620686 -0.000129034 -0.00130338 -0.00197626 -0.00261606 -0.003091 -8.18457e-05 -0.00217339 -0.0012997 -0.00324885 -0.00183454 -0.000941718 -0.00197851 -0.00220032 -0.00105773 -0.000683108 -0.00123436 0.000558659 -0.00269767
internal_weight=0 1396.18 1018.82 976.368 638.116 448.159 200.989 397.837 775.379 116.783 419.81 284.058 313.974 241.227 708.769 520.848 83.0051 95.066 187.921 506.428 163.887 113.306 79.2503 44.5502 211.204 190.925 161.504 72.5756 88.9288
internal_count=2415 1647 768 1272 577 461 188 443 1084 138 375 289 383 321 1022 793 85 127 229 784 214 132 105 61 248 213 194 67 127
is_linear=0
shrinkage=0.01


Tree=17
num_leaves=30
num_cat=0
split_feature=1 3 2 0 0 0 2 4 2 11 11 8 0 9 8 1 1 12 0 9 9 6 14 12 12 4 3 9 8
split_gain=36.4669 16.6259 13.1787 11.8759 8.08656 9.22739 6.61913 6.09658 5.75116 6.24693 5.23164 4.83933 6.96102 4.19807 4.17564 4.33693 4.11328 4.97081 3.99654 3.03756 3.66332 2.9599 3.17352 2.81317 2.76406 2.73857 2.73501 3.12157 4.15312
threshold=76.705000000000013 8.1705770120000007 1.5490277350000003 56.880000000000003 57.555000000000007 219.10000000000002 1.0393919465000001 316.50000000000006 0.73743420900000012 5.2750000000000012 5.1250000000000009 18.210000000000004 213.00000000000003 56.743843215000005 12.290000000000001 94.455000000000027 58.050000000000004 3.3648889875000005 42.850000000000001 24.884831685000005 54.802139880000006 83.500000000000014 5.7937219640000004 0.29950000000000004 0.19127725100000001 165.05000000000004 15.949369980000002 76.849909450000013 12.505000000000001
decision_type=2 2 2 2 2 2 2 2 2 2 2 2 2 2 2 2 2 2 2 2 2 2 2 2 2 2 2 2 2
left_child=1 3 4 6 25 7 10 14 -5 13 18 12 26 16 15 -6 -10 21 -1 -16 -21 22 -18 -15 -23 -2 27 28 -3
right_child=2 11 -4 8 5 -7 -8 -9 9 -11 -12 -13 -14 23 19 -17 17 -19 -20 20 -22 24 -24 -25 -26 -27 -28 -29 -30
leaf_value=0.00020239771197833655 -0.0003534813506034078 -0.0026706903044705511 0.0029109578845514937 -0.0041048391912445938 -0.0037337826077336518 0.0037604135192186913 0.002538070742375843 0.001667114493378483 -0.0036700338883767229 0.0012194382739883288 0.0032883411948695564 0.0021675772484467358 0.0025376260351530778 0.002040220489139264 0.00093372491346390091 0.00194294534425951 -0.0017332674234137124 0.0034582342860167386 -0.0039374969512455992 -0.0037669524235090885 0.00015994757772837219 0.0019060363404624558 -0.0040814496378900923 -0.0028431860546295688 -0.0023313383661660355 0.0026182607199679354 -0.0045388002377424411 0.0023195809205734789 0.00055307222453918916
leaf_weight=41.008899450302124 37.360863208770752 88.928763151168823 380.70689368247986 147.34285855293274 98.84358024597168 50.321544170379639 84.205919742584229 78.476542472839355 190.73418521881104 57.918702840805054 21.716668844223022 135.75106191635132 72.853945016860962 35.965716600418091 79.871689081192017 15.579425573348997 156.18286848068237 16.90980339050293 54.057106971740723 45.365887880325317 49.871667146682739 31.738265752792358 91.139641761779785 17.553986787796021 29.893242120742798 182.42456984519958 20.279511213302612 29.420607328414917 72.575616598129272
leaf_count=39 38 127 191 249 160 18 50 56 308 47 11 86 41 25 69 11 206 8 88 73 49 23 152 25 41 103 35 19 67
internal_value=0 -0.00104971 0.00143851 -0.00176526 0.000560026 -0.00025594 0.000400932 -0.000805136 -0.00232677 -0.00190962 -0.00114005 0.000614479 -0.000127744 -0.0022275 -0.00147523 -0.00296086 -0.0025037 -0.00182103 -0.00215166 -0.000504463 -0.00171061 -0.00210998 -0.00259858 0.000438507 -0.000149225 0.0021131 -0.00104715 -0.000676277 -0.00122202
internal_weight=0 1396.18 1018.82 976.368 638.116 418.33 200.989 368.009 775.379 628.036 116.783 419.81 284.058 570.118 289.532 114.423 516.598 325.864 95.066 175.109 95.2376 308.954 247.323 53.5197 61.6315 219.785 211.204 190.925 161.504
internal_count=2415 1647 768 1272 577 436 188 418 1084 835 138 375 289 788 362 171 738 430 127 191 122 422 358 50 64 141 248 213 194
is_linear=0
shrinkage=0.01


Tree=18
num_leaves=30
num_cat=0
split_feature=2 0 0 4 5 6 1 9 4 0 2 1 4 0 3 1 4 5 1 0 0 3 10 7 11 0 3 6 8
split_gain=35.8093 21.8564 17.414 10.3633 7.66844 8.32988 7.00748 6.56119 6.48583 5.63516 6.29421 4.51449 4.46372 7.61221 4.04301 3.80168 3.62147 3.32905 3.31023 4.37229 3.25348 3.21678 3.13384 2.87914 2.53929 3.44544 2.71208 3.56157 2.42336
threshold=1.4820926185000001 50.95000000000001 165.25000000000003 316.50000000000006 1.0000000180025095e-35 75.500000000000014 54.550000000000004 40.585937005000012 152.95000000000002 65.90000000000002 1.1656126225000001 68.520000000000024 185.85000000000002 43.850000000000009 8.2368137780000019 82.050000000000011 129.95000000000002 1.0000000180025095e-35 83.420000000000016 72.835000000000022 100.95000000000002 5.550798051000001 23.205000000000002 3.1350000000000002 3.2850000000000006 352.50000000000006 10.203387300000001 86.500000000000014 18.450000000000006
decision_type=2 2 2 2 2 2 2 2 2 2 2 2 2 2 2 2 2 2 2 2 2 2 2 2 2 2 2 2 2
left_child=1 12 3 4 5 18 -2 11 28 -7 -11 14 13 -1 -6 -13 -9 24 22 23 -12 -5 -3 -20 -10 26 -26 -28 -8
right_child=6 2 -4 21 7 9 8 16 17 10 20 15 -14 -15 -16 -17 -18 -19 19 -21 -22 -23 -24 -25 25 -27 27 -29 -30
leaf_value=0.001835498462854665 -0.0020842191206340318 -0.0038641792367044253 0.0027847255176478899 -0.002086726168693188 -0.0030688623660546301 0.0014326297727994483 -0.00083765309421521608 -0.0044421445483022164 0.002984562573079717 -0.004069281629459489 0.00056656393735749248 0.0012592398780107042 0.0026226665366306345 -0.0038214931796429498 0.00015540217809143956 -0.0032317187427681211 0.0015580324124235246 0.0033935908152504307 -0.0018492278525142544 -0.0044667499603150973 -0.0045008589762211932 0.0018996922911015378 -7.299654376953182e-05 0.0031085755947246646 0.0011863400207722038 0.0040617869933106503 -0.0050656041063674344 0.0013570069433181703 0.0023431171951302301
leaf_weight=77.317713260650635 41.653082847595215 385.18117547035217 97.059820890426636 25.257925271987915 184.29585576057434 67.532433748245239 86.889433145523071 11.008877515792845 112.23138046264648 78.392520427703857 79.700140476226807 75.815786838531494 186.65202069282532 34.357010364532471 49.292252540588379 25.086376667022705 116.58836889266968 270.89995145797729 24.678510665893555 28.391315698623657 15.064779758453367 101.93145513534546 23.111815452575684 22.296083450317383 96.202077865600586 30.343119144439697 18.541267395019531 16.158840179443359 33.068643569946289
leaf_count=54 56 633 51 33 281 53 97 19 56 130 74 62 105 54 48 38 90 118 32 49 26 70 24 12 76 10 32 12 20
internal_value=0 -0.000782646 -0.0013027 -0.00160471 -0.00189552 -0.00253765 0.00189458 -0.000888955 0.00214405 -0.0010175 -0.00197306 -0.00162492 0.00167651 9.51107e-05 -0.00238847 0.000142694 0.00104035 0.00260787 -0.00329414 -0.00136858 -0.000239004 0.00110805 -0.00364958 0.000503951 0.00182956 0.00102565 0.000321869 -0.00207478 3.91846e-05
internal_weight=0 1709.01 1410.69 1313.63 1186.44 724.349 705.988 462.088 664.335 240.69 173.157 334.49 298.327 111.675 233.588 100.902 127.597 544.377 483.659 75.3659 94.7649 127.189 408.293 46.9746 273.477 161.245 130.902 34.7001 119.958
internal_count=2415 1938 1725 1674 1571 1033 477 538 421 283 230 429 213 108 329 100 109 304 750 93 100 103 657 44 186 130 120 44 117
is_linear=0
shrinkage=0.01


Tree=19
num_leaves=30
num_cat=0
split_feature=1 3 2 0 0 0 2 11 4 11 8 0 8 11 6 12 6 0 9 10 11 14 4 6 8 9 11 1 3
split_gain=35.178 15.9689 12.7097 11.4001 7.82152 8.47457 6.43857 5.58207 5.52828 5.09317 4.70915 6.69313 4.52686 4.40874 4.20244 4.35599 4.16529 3.83845 3.51185 2.89135 2.84003 2.73866 2.71805 2.71619 3.93893 2.69975 2.96929 2.69007 2.81251
threshold=76.705000000000013 8.1705770120000007 1.5490277350000003 56.880000000000003 54.065000000000005 219.10000000000002 1.0393919465000001 5.2750000000000012 316.50000000000006 5.1250000000000009 18.210000000000004 213.00000000000003 22.350000000000005 4.6150000000000011 76.500000000000014 5.1118559195000008 74.500000000000014 42.850000000000001 56.743843215000005 21.080000000000002 3.9850000000000008 5.9450000000000012 196.15000000000003 86.500000000000014 10.305000000000001 15.686891345000001 4.495000000000001 91.705000000000013 11.051452765000002
decision_type=2 2 2 2 2 2 2 2 2 2 2 2 2 2 2 2 2 2 2 2 2 2 2 2 2 2 2 2 2
left_child=1 3 4 6 -2 8 9 14 12 17 11 -3 13 27 15 19 22 -1 20 -5 -16 -9 -15 24 -22 -14 -27 28 -6
right_child=2 10 -4 7 5 -7 -8 21 -10 -11 -12 -13 25 16 18 -17 -18 -19 -20 -21 23 -23 -24 -25 -26 26 -28 -29 -30
leaf_value=0.00017917239539214574 0.0022506762678153529 -0.0010337308819859581 0.0028588701916865134 -0.0034032674815830332 -0.0040459142893013488 0.0036958657307565325 0.0024978836105109333 0.0017254692031286383 0.001621185141142062 0.0032396717932730856 0.0021320485082664 0.0024813912185220701 0.0032060165668659885 -0.0044540134925994141 -0.0037543568894541439 0.0024144091411061356 0.0023492791768376835 -0.0038780137902052971 0.0023091514724507731 -0.00081860006222787222 0.00073868240982555191 -0.0028300024246289608 0.00049701767772013662 0.0014573218101910715 -0.0037892929947808897 0.0010222754537348568 -0.0047438658206774929 -0.00031656908365884818 0.0010563084104959581
leaf_weight=41.008899450302124 189.95695972442627 211.20449829101562 380.70689368247986 458.63729286193848 114.3162260055542 50.321544170379639 84.205919742584229 48.476520538330078 83.862822532653809 21.716668844223022 135.75106191635132 72.853945016860962 30.171570539474487 23.755998849868774 50.580619335174561 14.420596361160277 38.454923629760742 54.057106971740723 24.034327268600464 47.790326118469238 32.725546360015869 18.133401393890381 20.794157028198242 34.0559241771698 46.524717092514038 29.828473329544067 12.747121334075926 31.974583148956299 11.931389331817625
leaf_count=39 116 248 191 728 192 18 50 36 60 11 86 41 15 41 82 9 24 88 15 56 30 26 20 27 75 25 22 34 10
internal_value=0 -0.00103099 0.00141286 -0.00173226 0.000550147 -0.000170641 0.000390096 -0.00228241 -0.000659706 -0.00112972 0.000599983 -0.000132189 -0.00126893 -0.00192833 -0.00254252 -0.00300504 -6.18411e-05 -0.00212785 -0.00126058 -0.00315936 -0.00178409 0.000485321 -0.00214308 -0.000904554 -0.00191951 0.000917601 -0.000704106 -0.00290751 -0.00356371
internal_weight=0 1396.18 1018.82 976.368 638.116 448.159 200.989 775.379 397.837 116.783 419.81 284.058 313.974 241.227 708.769 520.848 83.0051 95.066 187.921 506.428 163.887 66.6099 44.5502 113.306 79.2503 72.7472 42.5756 158.222 126.248
internal_count=2415 1647 768 1272 577 461 188 1084 443 138 375 289 383 321 1022 793 85 127 229 784 214 62 61 132 105 62 47 236 202
is_linear=0
shrinkage=0.01


Tree=20
num_leaves=30
num_cat=0
split_feature=1 3 2 0 0 0 4 2 11 4 8 9 0 6 8 8 1 8 3 9 9 14 4 9 3 9 1 11 11
split_gain=34.4779 15.6511 12.4568 11.1888 7.66635 8.73956 5.75935 5.39211 5.60577 4.6247 4.57417 4.7152 4.92798 4.01241 4.73059 3.99292 4.17016 3.87961 3.29912 3.20793 3.16162 3.7454 3.07343 2.92261 3.53464 2.83045 2.722 2.66572 2.67989
threshold=76.705000000000013 8.1705770120000007 1.5490277350000003 50.95000000000001 57.555000000000007 219.10000000000002 316.50000000000006 0.73743420900000012 5.2750000000000012 224.10000000000002 12.505000000000001 76.849909450000013 574.00000000000011 76.500000000000014 44.300000000000004 12.290000000000001 94.455000000000027 18.050000000000004 4.233765087500001 56.743843215000005 43.292497850000011 7.2600000000000007 120.05000000000001 24.884831685000005 9.0386174510000021 17.733363285000006 70.620000000000019 3.9850000000000008 4.1014576240000009
decision_type=2 2 2 2 2 2 2 2 2 2 2 2 2 2 2 2 2 2 2 2 2 2 2 2 2 2 2 2 2
left_child=1 3 4 17 -2 6 15 -5 13 10 11 12 -3 14 20 16 -6 25 -15 27 22 -22 -9 -17 -25 -1 -27 -20 -29
right_child=2 9 -4 7 5 -7 -8 8 -10 -11 -12 -13 -14 18 -16 23 -18 -19 19 -21 21 -23 -24 24 -26 26 -28 28 -30
leaf_value=0.0014934380526586209 0.00205682983048115 -0.0034072845422389903 0.00283028148632526 -0.0038032106821151014 -0.0036462943430434075 0.0036589073063168836 0.0016185839555467568 -0.0010379917152951055 0.0012173117853819851 0.0022007508074897131 0.0010739786969313333 0.0020364594296219244 0.0022518511305784747 0.0015789077292556195 0.0013935816630263641 0.00092438698400592028 0.001920214458532591 0.0029609495033663786 -0.0043499610540366478 0.0022695186650715437 -0.0027097399705603032 0.0021785957494110525 -0.0036626300437612724 -0.0029520260009966042 0.0012242241505838582 -0.004825734204161462 0.00028697676953313793 0.0019500465238893917 -0.0021117073745288693
leaf_weight=38.283375024795532 219.78543305397034 88.006251335144043 380.70689368247986 159.10269927978516 98.84358024597168 50.321544170379639 78.476542472839355 53.005057573318481 57.918702840805054 125.55791640281677 157.01785373687744 30.579436540603638 18.648047208786011 43.669655084609985 28.090229511260986 79.871689081192017 15.579425573348997 56.115690231323242 37.661949396133423 19.227461814880371 41.481534242630005 25.193156480789185 281.87382698059082 65.98849630355835 29.249058723449707 20.858925819396973 20.794157028198242 20.965705633163452 72.125739574432373
leaf_count=29 141 136 191 264 160 18 56 65 47 79 128 21 11 33 22 69 11 28 65 12 61 17 460 98 24 36 20 15 98
internal_value=0 -0.00102068 0.00139873 -0.00171494 0.000544646 -0.000249837 -0.000784318 -0.00214568 -0.00175856 0.000593983 -9.16294e-05 -0.00142528 -0.00241781 -0.00203508 -0.00257374 -0.00143562 -0.00288838 0.000945501 -0.000839992 -0.0015443 -0.00285127 -0.000862673 -0.0032472 -0.000486325 -0.00166943 -0.000469352 -0.00227335 -0.00210513 -0.00119693
internal_weight=0 1396.18 1018.82 976.368 638.116 418.33 368.009 840.316 681.213 419.81 294.252 137.234 106.654 623.294 429.644 289.532 114.423 136.052 193.651 149.981 401.554 66.6747 334.879 175.109 95.2376 79.9365 41.6531 130.753 93.0914
internal_count=2415 1647 768 1272 577 436 418 1159 895 375 296 168 147 848 625 362 171 113 223 190 603 78 525 191 122 85 56 178 113
is_linear=0
shrinkage=0.01


Tree=21
num_leaves=30
num_cat=0
split_feature=2 0 0 4 5 6 1 9 4 0 2 4 0 1 3 1 4 5 6 0 3 12 3 11 0 3 8 8 0
split_gain=33.8436 20.6899 16.4898 9.79512 7.42806 7.96483 6.67072 6.30201 6.21109 5.40375 6.10019 4.30901 7.39978 4.30509 3.8253 3.69558 3.48494 3.23234 3.17661 3.15276 3.12436 2.74803 3.60795 2.46587 3.34906 3.47403 2.39357 2.32568 4.20924
threshold=1.4820926185000001 50.95000000000001 165.25000000000003 316.50000000000006 1.0000000180025095e-35 75.500000000000014 54.550000000000004 40.585937005000012 152.95000000000002 65.90000000000002 1.1656126225000001 185.85000000000002 43.850000000000009 68.520000000000024 8.2368137780000019 82.050000000000011 129.95000000000002 1.0000000180025095e-35 31.500000000000004 100.95000000000002 5.550798051000001 2.0807811100000007 5.2099502895000009 3.2850000000000006 264.90000000000003 10.203387300000001 12.605000000000002 18.450000000000006 122.30000000000001
decision_type=2 2 2 2 2 2 2 2 2 2 2 2 2 2 2 2 2 2 2 2 2 2 2 2 2 2 2 2 2
left_child=1 11 3 4 5 18 26 13 27 -7 -11 12 -1 14 -6 -15 -9 23 -3 -12 -5 -20 -23 -10 25 -25 -2 28 -8
right_child=6 2 -4 20 7 9 8 16 17 10 19 -13 -14 15 -16 -17 -18 -19 21 -21 -22 22 -24 24 -26 -27 -28 -29 -30
leaf_value=0.0017939464020724355 -0.0044336233154334175 0.00066523386902025701 0.0027106361288896752 -0.0020719393743218353 -0.0029815287560973481 0.0014103174461985394 -0.0027345646155720357 -0.0043401372836555799 0.0029103977997246028 -0.0039883691008452378 0.00057540975024911113 0.0025613824228539316 -0.003783553517061243 0.0012529101607802234 0.00015472439215617536 -0.0031749362572988816 0.0015458507964246945 0.0033133614055345416 -0.003717057335428724 -0.0044129526798592595 0.0018567973475218237 0.00086279172912983443 -0.0036105492634129124 0.0011443581326835667 0.0037096437461209058 -0.002758542543749232 0.00036073387904030107 0.0022824658638650928 0.001714752465247763
leaf_weight=77.317713260650635 20.858925819396973 20.214742422103882 97.059820890426636 25.257925271987915 184.29585576057434 67.532433748245239 49.76488733291626 11.008877515792845 112.23138046264648 78.392520427703857 79.700140476226807 186.65202069282532 34.357010364532471 75.815786838531494 49.292252540588379 25.086376667022705 116.58836889266968 270.89995145797729 390.56745553016663 15.064779758453367 101.93145513534546 32.725546360015869 40.151156425476074 96.202077865600586 35.14998459815979 29.893242120742798 20.794157028198242 33.068643569946289 37.124545812606812
leaf_count=54 36 19 51 33 281 53 70 19 56 130 74 105 54 62 48 38 90 118 637 26 70 30 64 76 13 41 20 20 27
internal_value=0 -0.000760862 -0.00126685 -0.00156073 -0.00184346 -0.00247544 0.00184185 -0.000852795 0.00208525 -0.000988974 -0.00192471 0.00163177 7.80145e-05 -0.00157408 -0.00231971 0.000152055 0.00103802 0.00253914 -0.00321517 -0.00021759 0.00107661 -0.00338443 -0.00160178 0.00177222 0.000980009 0.000219103 -0.00204017 2.54435e-05 -0.000833541
internal_weight=0 1709.01 1410.69 1313.63 1186.44 724.349 705.988 462.088 664.335 240.69 173.157 298.327 111.675 334.49 233.588 100.902 127.597 544.377 483.659 94.7649 127.189 463.444 72.8767 273.477 161.245 126.095 41.6531 119.958 86.8894
internal_count=2415 1938 1725 1674 1571 1033 477 538 421 283 230 213 108 429 329 100 109 304 750 100 103 731 94 186 130 117 56 117 97
is_linear=0
shrinkage=0.01


Tree=22
num_leaves=30
num_cat=0
split_feature=1 3 2 0 0 0 2 2 11 4 11 8 0 8 11 6 9 1 12 0 12 6 14 2 12 3 9 8 8
split_gain=33.2912 15.0464 11.994 10.7489 7.40892 8.01832 6.2168 5.38335 5.86836 5.21085 4.94346 4.5213 6.35175 4.34456 4.27672 4.01127 3.84601 3.88025 4.70265 3.65539 2.7354 2.71697 3.0915 2.67572 2.63428 2.63376 2.93173 3.9182 4.89849
threshold=76.705000000000013 8.1705770120000007 1.5490277350000003 56.880000000000003 54.065000000000005 219.10000000000002 1.0393919465000001 0.73743420900000012 5.2750000000000012 316.50000000000006 5.1250000000000009 18.210000000000004 213.00000000000003 22.350000000000005 4.6150000000000011 74.500000000000014 56.743843215000005 58.050000000000004 3.3648889875000005 42.850000000000001 0.29950000000000004 83.500000000000014 5.7937219640000004 0.75045310650000008 0.19127725100000001 15.949369980000002 76.849909450000013 12.505000000000001 14.705000000000002
decision_type=2 2 2 2 2 2 2 2 2 2 2 2 2 2 2 2 2 2 2 2 2 2 2 2 2 2 2 2 2
left_child=1 3 4 6 -2 9 10 -5 16 13 19 12 25 14 -6 23 17 -9 21 -1 -18 22 -19 -16 -23 26 27 -3 -29
right_child=2 11 -4 7 5 -7 -8 8 -10 -11 -12 -13 -14 -15 15 -17 20 18 -20 -21 -22 24 -24 -25 -26 -27 -28 28 -30
leaf_value=0.0001517522730065874 0.0021914462163407662 -0.0025875133591530507 0.0027791585093412739 -0.0039381514248863986 -0.0028427290199990358 0.0035958414272109331 0.0024483448275664848 -0.003519566158151442 0.0012184773591152468 0.0015735792570331086 0.0031884599267611134 0.002081399448136349 0.0024088387406155259 0.00090971637518611056 0.00060655038772261364 0.0023261340296372459 0.0020088039319475122 -0.0016188104071752142 0.0034111849130860411 -0.003807510137301344 -0.0028066286587904448 0.0018802536411995695 -0.0039364505215124775 -0.0043160124149748741 -0.0022564507303698168 -0.0044418751503010837 0.0022518139049149768 0.0023329432211929625 -0.00322861531896825
leaf_weight=41.008899450302124 189.95695972442627 88.928763151168823 380.70689368247986 147.34285855293274 158.22219848632812 50.321544170379639 84.205919742584229 190.73418521881104 57.918702840805054 83.862822532653809 21.716668844223022 135.75106191635132 72.853945016860962 72.747165203094482 20.214742422103882 38.454923629760742 35.965716600418091 156.18286848068237 16.90980339050293 54.057106971740723 17.553986787796021 31.738265752792358 91.139641761779785 24.335413455963135 29.893242120742798 20.279511213302612 29.420607328414917 49.227483749389648 23.348132848739624
leaf_count=39 116 127 191 249 236 18 50 308 47 60 11 86 41 62 19 24 25 206 8 88 25 23 152 42 41 35 19 32 35
internal_value=0 -0.00100296 0.00137444 -0.00168368 0.000536377 -0.000165142 0.000377176 -0.00221788 -0.00181429 -0.00064086 -0.00111624 0.000580203 -0.000137216 -0.00123234 -0.00187832 -3.99901e-05 -0.00212239 -0.00238676 -0.0017237 -0.00209959 0.000429385 -0.00200474 -0.00247287 -0.00208239 -0.00012618 -0.00101547 -0.000651522 -0.00118041 0.000543747
internal_weight=0 1396.18 1018.82 976.368 638.116 448.159 200.989 775.379 628.036 397.837 116.783 419.81 284.058 313.974 241.227 83.0051 570.118 516.598 325.864 95.066 53.5197 308.954 247.323 44.5502 61.6315 211.204 190.925 161.504 72.5756
internal_count=2415 1647 768 1272 577 461 188 1084 835 443 138 375 289 383 321 85 788 738 430 127 50 422 358 61 64 248 213 194 67
is_linear=0
shrinkage=0.01


Tree=23
num_leaves=30
num_cat=0
split_feature=1 2 2 0 3 0 0 1 10 11 4 5 8 0 8 1 2 5 0 0 0 4 9 3 1 9 9 2 12
split_gain=32.6287 14.7907 11.7554 10.5034 7.76155 7.28428 8.27441 6.33333 5.78723 5.73271 5.43793 4.24393 4.17976 4.0553 3.82358 4.03849 3.67764 3.60635 3.66307 5.28538 3.33675 3.28946 3.0559 3.97027 3.2559 2.8517 3.44053 2.63323 3.04128
threshold=76.705000000000013 1.2451106185000003 1.5490277350000003 51.860000000000007 11.280380795000001 57.555000000000007 219.10000000000002 54.350000000000001 11.850000000000001 4.7750000000000012 316.50000000000006 1.0000000180025095e-35 20.806714010000004 82.550000000000026 12.290000000000001 94.455000000000027 0.68929433900000003 1.0000000180025095e-35 80.935000000000016 946.00000000000011 38.500000000000007 469.50000000000006 46.686506375000008 7.7375585540000005 71.920000000000016 24.884831685000005 54.802139880000006 1.6864729890000001 0.24959344900000002
decision_type=2 2 2 2 2 2 2 2 2 2 2 2 2 2 2 2 2 2 2 2 2 2 2 2 2 2 2 2 2
left_child=1 3 5 9 11 -2 10 -3 13 12 14 21 20 -9 15 -7 -13 18 -10 -20 -1 -5 23 24 -18 -16 -27 28 -15
right_child=2 7 -4 4 -6 6 -8 8 17 -11 -12 16 -14 27 25 -17 22 -19 19 -21 -22 -23 -24 -25 -26 26 -28 -29 -30
leaf_value=0.000195567880681188 0.0020050351139047737 -0.0022294054623181051 0.0027513669472626345 -0.003289110553365145 0.0017336951412557445 -0.0035638221440211022 0.0035598832214065418 -0.0046426239866267259 0.0021383446145388941 0.0032509087699157634 0.0015714052753759303 -0.0042412584849915395 0.0023068102483573922 -0.001718961361731799 0.00092609084081129317 0.001914104278949494 -0.0029534608159901337 0.0029206985268064611 -0.0018910054972646419 0.0040439273147995771 -0.004566316772137563 0.0010907733432068028 0.0014609703610929104 0.00065305194541037084 0.0017286442742829396 -0.003628897964337241 0.00017671735523055979 -0.0030774720648713361 0.0028675156672455559
leaf_weight=27.339266300201416 219.78543305397034 76.761056423187256 380.70689368247986 409.38705134391785 46.738276720046997 98.84358024597168 50.321544170379639 24.914828062057495 90.579480409622192 55.536275625228882 78.476542472839355 42.876680850982666 28.261778116226196 24.099096059799194 79.871689081192017 15.579425573348997 131.80544400215149 123.00394058227539 74.035531997680664 18.819595813751221 31.867803335189819 17.89708399772644 40.021618843078613 58.326568841934204 16.73825478553772 45.365887880325317 49.871667146682739 21.030474424362183 36.137265205383301
leaf_count=26 141 106 191 643 33 160 18 43 61 27 56 74 17 31 69 11 201 64 96 6 55 15 32 53 13 73 49 31 20
internal_value=0 -0.000992934 0.0013607 -0.00174906 -0.00221475 0.000531013 -0.000243419 0.000408122 0.00089879 0.000738198 -0.000763483 -0.00247211 -0.000857188 -0.00111311 -0.00139634 -0.00281797 -0.00153791 0.00159592 0.000707574 -0.000688131 -0.00236748 -0.00310566 -0.00106843 -0.00155778 -0.00242587 -0.000467403 -0.00163607 -3.10328e-05 0.00103258
internal_weight=0 1396.18 1018.82 906.796 763.791 638.116 418.33 489.381 412.62 143.005 368.009 717.053 87.4688 106.182 289.532 114.423 289.769 306.439 183.435 92.8551 59.2071 427.284 246.892 206.87 148.544 175.109 95.2376 81.2668 60.2364
internal_count=2415 1647 768 1189 1064 577 436 458 352 125 418 1031 98 125 362 171 373 227 163 102 81 658 299 267 214 191 122 82 51
is_linear=0
shrinkage=0.01


Tree=24
num_leaves=30
num_cat=0
split_feature=2 0 0 4 5 6 1 9 4 0 2 4 0 8 14 1 4 5 6 0 3 12 3 11 6 11 0 3 6
split_gain=31.9949 19.5779 15.6188 9.24156 7.10689 7.64198 6.29396 6.03042 5.95015 5.189 5.8778 4.15836 7.13842 4.10244 4.11701 3.41326 3.37532 3.12611 3.05968 3.0474 3.03898 2.65543 3.53163 2.49406 2.42367 2.38758 3.22884 2.62803 3.43079
threshold=1.4820926185000001 50.95000000000001 165.25000000000003 316.50000000000006 1.0000000180025095e-35 75.500000000000014 54.550000000000004 40.585937005000012 152.95000000000002 65.90000000000002 1.1656126225000001 185.85000000000002 43.850000000000009 23.720000000000002 4.2750000000000012 65.750348160000016 129.95000000000002 1.0000000180025095e-35 31.500000000000004 100.95000000000002 5.550798051000001 2.0807811100000007 5.2099502895000009 4.705000000000001 57.500000000000007 3.2850000000000006 352.50000000000006 10.203387300000001 86.500000000000014
decision_type=2 2 2 2 2 2 2 2 2 2 2 2 2 2 2 2 2 2 2 2 2 2 2 2 2 2 2 2 2
left_child=1 11 3 4 5 18 -2 13 -8 -7 -11 12 -1 14 -6 -15 -9 25 -3 -12 -5 -20 -23 -16 -25 -10 27 -27 -29
right_child=6 2 -4 20 7 9 8 16 17 10 19 -13 -14 15 23 -17 -18 -19 21 -21 -22 22 -24 24 -26 26 -28 28 -30
leaf_value=0.0017466678360685273 -0.001979962493151053 0.00067293128114614574 0.002639029435377656 -0.0020615072799107436 0.00045830032622145412 0.001396361876397382 1.1190865766297737e-05 -0.0042668874549998603 0.0028372683754711763 -0.0038974172951658681 0.0005836265071490238 0.0025008803429294986 -0.0037314508595425412 -0.0020862194933834815 -0.0035544516992591351 0.0023599502773705787 0.0015257842533979602 0.0032329091582366087 -0.0036284706720293766 -0.0043206811548256391 0.0018131805448679092 0.00088922755054262009 -0.0035365498010654674 -0.0033355685445560198 0.00020753095746476379 0.0011074449447753209 0.0038769299430071597 -0.0050381464064417894 0.0012654431190115166
leaf_weight=77.317713260650635 41.653082847595215 20.214742422103882 97.059820890426636 25.257925271987915 50.4510817527771 67.532433748245239 119.95807671546936 11.008877515792845 112.23138046264648 78.392520427703857 79.700140476226807 186.65202069282532 34.357010364532471 28.734412908554077 133.20059061050415 43.261789083480835 116.58836889266968 270.89995145797729 390.56745553016663 15.064779758453367 101.93145513534546 32.725546360015869 40.151156425476074 33.77759575843811 45.064801692962646 96.202077865600586 30.343119144439697 18.541267395019531 16.158840179443359
leaf_count=54 56 19 51 33 50 53 117 19 56 130 74 105 54 39 214 27 90 118 637 26 70 30 64 53 46 76 10 32 12
internal_value=0 -0.000739788 -0.00123199 -0.00151801 -0.00179263 -0.0024108 0.00179083 -0.000823619 0.00202726 -0.000954771 -0.00187173 0.00158766 6.13108e-05 -0.00152919 -0.00210918 0.000585439 0.001026 0.00247152 -0.00313538 -0.000196011 0.00104372 -0.0033015 -0.00154914 -0.00272006 -0.0013104 0.0017173 0.000937771 0.000256474 -0.00210275
internal_weight=0 1709.01 1410.69 1313.63 1186.44 724.349 705.988 462.088 664.335 240.69 173.157 298.327 111.675 334.49 262.494 71.9962 127.597 544.377 483.659 94.7649 127.189 463.444 72.8767 212.043 78.8424 273.477 161.245 130.902 34.7001
internal_count=2415 1938 1725 1674 1571 1033 477 538 421 283 230 213 108 429 363 66 109 304 750 100 103 731 94 313 99 186 130 120 44
is_linear=0
shrinkage=0.01


Tree=25
num_leaves=30
num_cat=0
split_feature=1 2 2 0 3 0 0 1 10 11 4 5 8 0 8 1 2 5 0 0 0 4 9 3 1 9 3 9 3
split_gain=31.4915 14.2108 11.3275 10.0707 7.5177 7.04274 7.99242 6.102 5.63174 5.58837 5.23595 4.0869 4.07385 3.95787 3.70167 3.93613 3.58765 3.48942 3.58156 5.10759 3.22827 3.17123 2.94148 3.87153 3.18404 2.79179 3.34706 2.58095 2.57841
threshold=76.705000000000013 1.2451106185000003 1.5490277350000003 51.860000000000007 11.280380795000001 57.555000000000007 219.10000000000002 54.350000000000001 11.850000000000001 4.7750000000000012 316.50000000000006 1.0000000180025095e-35 20.806714010000004 82.550000000000026 12.290000000000001 94.455000000000027 0.68929433900000003 1.0000000180025095e-35 80.935000000000016 946.00000000000011 38.500000000000007 469.50000000000006 46.686506375000008 7.7375585540000005 71.920000000000016 24.884831685000005 9.0386174510000021 21.950857330000002 6.7760308005000001
decision_type=2 2 2 2 2 2 2 2 2 2 2 2 2 2 2 2 2 2 2 2 2 2 2 2 2 2 2 2 2
left_child=1 3 5 9 11 -2 10 -3 13 12 14 21 20 -9 15 -7 -13 18 -10 27 -1 -5 23 24 -18 -16 -27 -20 -12
right_child=2 7 -4 4 -6 6 -8 8 17 -11 28 16 -14 -15 25 -17 22 -19 19 -21 -22 -23 -24 -25 -26 26 -28 -29 -30
leaf_value=0.00017370046657866976 0.0019717043441207088 -0.0021910741076930102 0.0027019021408440274 -0.0032277551911817659 0.0017132959109486731 -0.0035063976228266124 0.0034987779989557096 -0.0045920837495081234 0.0021080997723094777 0.0031997426257895714 -0.0010771559157758022 -0.0041792261889953596 0.002267345239654607 -3.6230422166587038e-05 0.00092151260762694364 0.0019016605088998065 -0.0029045242786561705 0.0028702858040317888 -1.9338731674882835e-05 0.0039650389048695271 -0.0045101447009501597 0.0010726987532979561 0.0014361346486484955 0.00065760639443871024 0.0017256186136525335 -0.0028616895671924568 0.0012022368790243294 -0.0037537190830718944 0.0027958342439883244
leaf_weight=27.339266300201416 219.78543305397034 76.761056423187256 380.70689368247986 409.38705134391785 46.738276720046997 98.84358024597168 50.321544170379639 24.914828062057495 90.579480409622192 55.536275625228882 25.429473876953125 42.876680850982666 28.261778116226196 81.266835689544678 79.871689081192017 15.579425573348997 131.80544400215149 123.00394058227539 37.360863208770752 18.819595813751221 31.867803335189819 17.89708399772644 40.021618843078613 58.326568841934204 16.73825478553772 65.98849630355835 29.249058723449707 36.674668788909912 53.04706859588623
leaf_count=26 141 106 191 643 33 160 18 43 61 27 28 74 17 82 69 11 201 64 38 6 55 15 32 53 13 98 24 58 28
internal_value=0 -0.000975477 0.00133678 -0.00171663 -0.00217263 0.000522328 -0.000239157 0.000397837 0.000879461 0.000718865 -0.000750282 -0.00242592 -0.000856309 -0.00110523 -0.00137128 -0.00277006 -0.00150916 0.00156716 0.000693338 -0.000686752 -0.00234735 -0.00304763 -0.00104546 -0.00152556 -0.00238279 -0.000457266 -0.00161359 -0.00186922 0.00154083
internal_weight=0 1396.18 1018.82 906.796 763.791 638.116 418.33 489.381 412.62 143.005 368.009 717.053 87.4688 106.182 289.532 114.423 289.769 306.439 183.435 92.8551 59.2071 427.284 246.892 206.87 148.544 175.109 95.2376 74.0355 78.4765
internal_count=2415 1647 768 1189 1064 577 436 458 352 125 418 1031 98 125 362 171 373 227 163 102 81 658 299 267 214 191 122 96 56
is_linear=0
shrinkage=0.01


Tree=26
num_leaves=30
num_cat=0
split_feature=1 2 2 0 3 0 0 1 10 11 4 5 8 0 8 1 2 5 0 0 0 4 11 9 9 4 9 3 2
split_gain=30.8648 13.928 11.1021 9.87032 7.36809 6.90259 7.83337 5.98057 5.51967 5.47717 5.13175 4.00557 3.99278 3.87911 3.62801 3.8578 3.51625 3.41998 3.51029 5.00595 3.16403 3.10813 2.88623 2.73623 3.32758 2.64502 3.32939 3.32794 2.75375
threshold=76.705000000000013 1.2451106185000003 1.5490277350000003 51.860000000000007 11.280380795000001 57.555000000000007 219.10000000000002 54.350000000000001 11.850000000000001 4.7750000000000012 316.50000000000006 1.0000000180025095e-35 20.806714010000004 82.550000000000026 12.290000000000001 94.455000000000027 0.68929433900000003 1.0000000180025095e-35 80.935000000000016 946.00000000000011 38.500000000000007 469.50000000000006 5.2750000000000012 24.884831685000005 54.802139880000006 141.90000000000003 46.686506375000008 7.7375585540000005 0.83043093450000016
decision_type=2 2 2 2 2 2 2 2 2 2 2 2 2 2 2 2 2 2 2 2 2 2 2 2 2 2 2 2 2
left_child=1 3 5 9 11 -2 10 -3 13 12 14 21 20 -9 15 -7 -13 18 -10 -20 -1 -5 25 -16 -25 28 27 -27 -18
right_child=2 7 -4 4 -6 6 -8 8 17 -11 -12 16 -14 -15 23 -17 22 -19 19 -21 -22 -23 -24 24 -26 26 -28 -29 -30
leaf_value=0.00017196350268233331 0.0019519874072996984 -0.0021691633310525682 0.0026748831048517365 -0.003195477681525213 0.0016961630182815589 -0.0034713336474576501 0.0034637900327073529 -0.0045461629640463552 0.0020870188019607196 0.003167745232131829 0.0015254252914974793 -0.0041374338707004226 0.0022446718550630422 -3.5868104669591058e-05 0.00091229761248110832 0.001882643841066764 -0.00019297028402059748 0.0028415829232891284 -0.0018505307523009685 0.0039253882961783823 -0.0044650433191231204 0.0010619717077325656 0.0027476306702274751 -0.0035573020370291779 0.00018532793061364948 -0.0023077891670549543 0.0024163694606497165 0.001326764769829713 -0.0043332496459173812
leaf_weight=27.339266300201416 219.78543305397034 76.761056423187256 380.70689368247986 409.38705134391785 46.738276720046997 98.84358024597168 50.321544170379639 24.914828062057495 90.579480409622192 55.536275625228882 78.476542472839355 42.876680850982666 28.261778116226196 81.266835689544678 79.871689081192017 15.579425573348997 24.270644664764404 123.00394058227539 74.035531997680664 18.819595813751221 31.867803335189819 17.89708399772644 18.648047208786011 45.365887880325317 49.871667146682739 92.405250787734985 29.420607328414917 34.63533878326416 47.511997699737549
leaf_count=26 141 106 191 643 33 160 18 43 61 27 56 74 17 82 69 11 26 64 96 6 55 15 11 73 49 133 19 28 82
internal_value=0 -0.000965722 0.00132341 -0.00169946 -0.0021509 0.000517104 -0.000236765 0.000393859 0.000870666 0.000711677 -0.000742779 -0.00240166 -0.000847746 -0.00109418 -0.00135757 -0.00274236 -0.00149407 0.00155149 0.000686404 -0.000679885 -0.00232387 -0.00301715 -0.00103501 -0.000452693 -0.00159745 -0.00134406 -0.000614899 -0.00131689 -0.00293337
internal_weight=0 1396.18 1018.82 906.796 763.791 638.116 418.33 489.381 412.62 143.005 368.009 717.053 87.4688 106.182 289.532 114.423 289.769 306.439 183.435 92.8551 59.2071 427.284 246.892 175.109 95.2376 228.244 156.461 127.041 71.7826
internal_count=2415 1647 768 1189 1064 577 436 458 352 125 418 1031 98 125 362 171 373 227 163 102 81 658 299 191 122 288 180 161 108
is_linear=0
shrinkage=0.01


Tree=27
num_leaves=30
num_cat=0
split_feature=1 2 2 0 3 0 0 1 10 11 4 8 11 5 8 8 6 2 5 0 0 0 4 9 3 1 2 9 9
split_gain=30.2506 13.6508 10.8812 9.6739 7.22147 6.77249 7.29741 5.86156 5.40983 5.36817 4.72515 4.0525 4.07834 3.92586 3.91333 3.83506 3.83076 3.44628 3.35192 3.44043 4.90633 3.10107 3.04627 2.82901 3.74017 3.118 2.58054 2.52959 2.52302
threshold=76.705000000000013 1.2451106185000003 1.5490277350000003 51.860000000000007 11.280380795000001 54.065000000000005 219.10000000000002 54.350000000000001 11.850000000000001 4.7750000000000012 316.50000000000006 22.350000000000005 4.6150000000000011 1.0000000180025095e-35 20.806714010000004 10.210000000000003 74.500000000000014 0.68929433900000003 1.0000000180025095e-35 80.935000000000016 946.00000000000011 38.500000000000007 469.50000000000006 46.686506375000008 7.7375585540000005 71.920000000000016 0.75045310650000008 21.950857330000002 15.686891345000001
decision_type=2 2 2 2 2 2 2 2 2 2 2 2 2 2 2 2 2 2 2 2 2 2 2 2 2 2 2 2 2
left_child=1 3 5 9 13 -2 10 -3 15 14 11 12 -7 22 21 -9 26 -15 19 -10 27 -1 -5 24 25 -19 -14 -21 -13
right_child=2 7 -4 4 -6 6 -8 8 18 -11 -12 28 16 17 -16 -17 -18 23 -20 20 -22 -23 -24 -25 -26 -27 -28 -29 -30
leaf_value=0.00017024389305465948 0.0020943201137771351 -0.0021474717300830966 0.00264813432413825 -0.0031635228883050617 0.0016792013964518633 -0.0027415136890626131 0.0034291523455266767 -0.003668297460859336 0.0020661486353931169 0.0031360677626920764 0.0014961050805692919 0.003105206514542986 0.00064022026872705086 -0.0040960595505170512 0.0022222250319050381 0.00031393993550594279 0.0023077212572827706 -0.00285434454967549 0.0028131670394082819 -6.4004911513461109e-07 0.0038861344532811551 -0.004420392865264279 0.0010513520013125549 0.0014090338986647408 0.00065032227939395258 0.0017275323928757603 -0.0041940043372829519 -0.0036976765794000202 -0.00067477078970751931
leaf_weight=27.339266300201416 189.95695972442627 76.761056423187256 380.70689368247986 409.38705134391785 46.738276720046997 158.22219848632812 50.321544170379639 37.254083395004272 90.579480409622192 55.536275625228882 83.862822532653809 30.171570539474487 20.214742422103882 42.876680850982666 28.261778116226196 68.9275803565979 38.454923629760742 131.80544400215149 123.00394058227539 37.360863208770752 18.819595813751221 31.867803335189819 17.89708399772644 40.021618843078613 58.326568841934204 16.73825478553772 24.335413455963135 36.674668788909912 42.575594663619995
leaf_count=26 116 106 191 643 33 236 18 59 61 27 60 15 19 74 17 66 24 201 64 38 6 55 15 32 53 13 42 58 47
internal_value=0 -0.000956065 0.00131017 -0.00168247 -0.00212939 0.000511933 -0.000158779 0.00038992 0.000861959 0.00070456 -0.000612608 -0.00117585 -0.00179974 -0.00237764 -0.000839268 -0.00108324 -4.55029e-06 -0.00147913 0.00153597 0.00067954 -0.000673086 -0.00230064 -0.00298698 -0.00102466 -0.00149548 -0.00233805 -0.00200046 -0.00183203 0.000892958
internal_weight=0 1396.18 1018.82 906.796 763.791 638.116 448.159 489.381 412.62 143.005 397.837 313.974 241.227 717.053 87.4688 106.182 83.0051 289.769 306.439 183.435 92.8551 59.2071 427.284 246.892 206.87 148.544 44.5502 74.0355 72.7472
internal_count=2415 1647 768 1189 1064 577 461 458 352 125 443 383 321 1031 98 125 85 373 227 163 102 81 658 299 267 214 61 96 62
is_linear=0
shrinkage=0.01


Tree=28
num_leaves=30
num_cat=0
split_feature=1 2 2 0 3 0 0 1 10 11 13 1 12 8 0 6 14 6 5 0 0 0 10 9 11 14 2 12 4
split_gain=29.6486 13.3792 10.6646 9.48139 7.07776 6.64466 7.52796 5.74491 5.30218 5.26134 5.01506 5.04498 3.85915 3.83545 3.78974 3.59017 4.55123 3.38641 3.28522 3.37197 4.8087 3.03936 2.90248 3.08002 2.67322 3.58732 2.56028 2.93966 2.54201
threshold=76.705000000000013 1.2451106185000003 1.5490277350000003 51.860000000000007 11.280380795000001 57.555000000000007 219.10000000000002 54.350000000000001 11.850000000000001 4.7750000000000012 1.0000000180025095e-35 94.455000000000027 5.1118559195000008 20.806714010000004 82.550000000000026 41.500000000000007 8.0100000000000016 83.500000000000014 1.0000000180025095e-35 80.935000000000016 946.00000000000011 38.500000000000007 15.620000000000003 50.02521272500001 5.2750000000000012 5.9250000000000007 1.6864729890000001 0.24959344900000002 165.05000000000004
decision_type=2 2 2 2 2 2 2 2 2 2 2 2 2 2 2 2 2 2 2 2 2 2 2 2 2 2 2 2 2
left_child=1 3 5 9 12 28 10 -3 14 13 11 15 17 21 -9 -7 -17 24 19 -10 -21 -1 23 -18 -5 -26 27 -16 -2
right_child=2 7 -4 4 -6 6 -8 8 18 -11 -12 -13 -14 -15 26 16 22 -19 -20 20 -22 -23 -24 -25 25 -27 -28 -29 -30
leaf_value=0.00016854139787535264 -0.00046178260974221916 -0.0021259970141217208 0.002621652999355655 -0.0028703564578209518 0.0016624092983185041 0.0011955615017456053 0.0033948610641782368 -0.0044843925805310358 0.0020454871701786224 0.0031047071184434191 0.00280877430407449 0.0022629245567976344 0.0019347190924009321 0.0022000029669688131 -0.0016827610396765657 -0.0031952974108318704 -0.0035250728781829363 -7.2396560556406417e-05 0.0027850353672939578 -0.0018137051584521679 0.0038472731955284888 -0.0043761889252958864 0.002167062525989593 0.00038931376279142596 0.0012417072766988423 -0.0045750570424591954 -0.0030303025076930772 0.0028264409757927057 0.0024013268713645171
leaf_weight=27.339266300201416 37.360863208770752 76.761056423187256 380.70689368247986 591.87989449501038 46.738276720046997 40.601033449172974 50.321544170379639 24.914828062057495 90.579480409622192 55.536275625228882 36.137265205383301 39.034338235855103 20.386291027069092 28.261778116226196 24.099096059799194 141.65549230575562 38.412912607192993 53.927569389343262 123.00394058227539 74.035531997680664 18.819595813751221 31.867803335189819 30.000021934509277 42.167728662490845 35.794167995452881 15.064779758453367 21.030474424362183 36.137265205383301 182.42456984519958
leaf_count=26 38 106 191 905 33 33 18 43 61 27 20 25 14 17 31 218 61 56 64 96 6 55 20 41 30 26 31 20 103
internal_value=0 -0.000946504 0.00129707 -0.00166564 -0.0021081 0.000506814 -0.000232836 0.000386021 0.00085334 0.000697514 -0.000728888 -0.0011141 -0.00235386 -0.000830876 -0.0010724 -0.00156425 -0.00200848 -0.00247936 0.00152061 0.000672745 -0.000666355 -0.00227763 -0.00048815 -0.00147668 -0.00268131 -0.000481259 -2.6356e-05 0.00102242 0.00191463
internal_weight=0 1396.18 1018.82 906.796 763.791 638.116 418.33 489.381 412.62 143.005 368.009 331.872 717.053 87.4688 106.182 292.837 252.236 696.666 306.439 183.435 92.8551 59.2071 110.581 80.5806 642.739 50.8589 81.2668 60.2364 219.785
internal_count=2415 1647 768 1189 1064 577 436 458 352 125 418 398 1031 98 125 373 340 1017 227 163 102 81 122 102 961 56 82 51 141
is_linear=0
shrinkage=0.01


Tree=29
num_leaves=30
num_cat=0
split_feature=1 2 2 0 3 0 0 1 8 11 4 0 8 11 5 8 6 2 0 4 11 4 9 3 2 0 9 11 1
split_gain=29.0586 13.1129 10.4524 9.29271 6.93691 6.52023 7.0128 5.63059 5.24028 5.15664 4.55358 4.32989 3.92972 3.99055 3.83977 3.75912 3.73386 3.37274 2.97887 2.96334 2.79866 2.58935 3.20132 3.2143 2.681 2.55589 2.47484 2.81033 2.44317
threshold=76.705000000000013 1.2451106185000003 1.5490277350000003 51.860000000000007 11.280380795000001 54.065000000000005 219.10000000000002 54.350000000000001 17.730000000000004 4.7750000000000012 316.50000000000006 196.50000000000003 22.350000000000005 4.6150000000000011 1.0000000180025095e-35 20.806714010000004 74.500000000000014 0.68929433900000003 38.500000000000007 469.50000000000006 5.2750000000000012 141.90000000000003 46.686506375000008 7.7375585540000005 0.83043093450000016 71.950000000000017 15.686891345000001 4.495000000000001 91.705000000000013
decision_type=2 2 2 2 2 2 2 2 2 2 2 2 2 2 2 2 2 2 2 2 2 2 2 2 2 2 2 2 2
left_child=1 3 5 9 14 -2 10 -3 11 15 12 -9 13 28 19 18 25 -16 -1 -5 21 24 23 -23 -19 -15 -14 -28 -7
right_child=2 7 -4 4 -6 6 -8 8 -10 -11 -12 -13 26 16 17 -17 -18 20 -20 -21 -22 22 -24 -25 -26 -27 27 -29 -30
leaf_value=0.00016685601714441282 0.0020543834369628985 -0.0021047370749821023 0.0025954363875187471 -0.00310707026731721 0.0016457852190446375 -0.0033254833556345632 0.0033609122621251859 -0.00064804922636270076 0.0024260163551636927 0.0030736599883908894 0.0014688285363912929 0.0023360370252055126 0.0030740795647122171 0.00059685052599139606 -0.0040305793565663158 0.0021780028605308107 0.0022900631195144397 -0.00016498506259357828 -0.004332427038380892 0.0010500347405158921 0.0027326918224948511 -0.0022371955344245215 0.0023973914660925335 0.0013347612695129949 -0.0042502115882193797 -0.0042042218830530319 0.0010099059377377539 -0.0045997661249533393 -0.00023094284734266856
